{"learner":{"attributes":{"best_iteration":"99","best_ntree_limit":"100","scikit_learn":"{\"use_label_encoder\": null, \"n_estimators\": 100, \"objective\": \"binary:logistic\", \"max_depth\": null, \"max_leaves\": null, \"max_bin\": null, \"grow_policy\": null, \"learning_rate\": null, \"verbosity\": null, \"booster\": null, \"tree_method\": null, \"gamma\": null, \"min_child_weight\": null, \"max_delta_step\": null, \"subsample\": null, \"sampling_method\": null, \"colsample_bytree\": null, \"colsample_bylevel\": null, \"colsample_bynode\": null, \"reg_alpha\": null, \"reg_lambda\": null, \"scale_pos_weight\": null, \"base_score\": null, \"missing\": NaN, \"num_parallel_tree\": null, \"random_state\": 42, \"n_jobs\": null, \"monotone_constraints\": null, \"interaction_constraints\": null, \"importance_type\": null, \"gpu_id\": null, \"validate_parameters\": null, \"predictor\": null, \"enable_categorical\": false, \"feature_types\": null, \"max_cat_to_onehot\": null, \"max_cat_threshold\": null, \"eval_metric\": null, \"early_stopping_rounds\": null, \"callbacks\": null, \"classes_\": [false, true], \"n_classes_\": 2, \"evals_result_\": {\"validation_0\": {\"logloss\": [0.4737753164436893, 0.3483981001233894, 0.2686251724460104, 0.21493017621080687, 0.1777228406514905, 0.1514090751442238, 0.1327534235130722, 0.11924733543753005, 0.10960473911038406, 0.10246647086619333, 0.09733777362805453, 0.0935358093028418, 0.09078044485239761, 0.08871379108779694, 0.08717344016981442, 0.08603239998501187, 0.0851450124672944, 0.08436953810910681, 0.08384205165044072, 0.08332615493484473, 0.0829633550528702, 0.08267915422956436, 0.08247478784297875, 0.08219209570882609, 0.08195629282619235, 0.08164507816379267, 0.08134684733349565, 0.081063342579609, 0.08083704435368655, 0.08060427835499656, 0.08045739809006763, 0.08031847589828353, 0.08016621268377379, 0.07987675396362955, 0.07965481752913364, 0.07940834381571958, 0.07919879748895077, 0.07905079721565215, 0.07894435150018636, 0.07853930314485916, 0.07831088662831902, 0.07820057460092386, 0.07812818214771974, 0.07808039061853125, 0.07781395273392287, 0.07771914648501006, 0.07740273228395879, 0.07716000507305305, 0.0770408779836226, 0.07683604374526039, 0.07670972632380148, 0.07627374517223194, 0.07597173746500714, 0.07570188201057679, 0.0754385687625339, 0.07518958839224205, 0.07496631804790879, 0.07473393554960645, 0.07463901191487614, 0.07440245087499231, 0.07416837094751894, 0.07396090823364199, 0.0736784157863414, 0.07329997629424292, 0.07311220425145759, 0.07294060763345678, 0.07280442276273803, 0.07267764214138211, 0.07252867404080349, 0.07243028025941334, 0.07225947353003154, 0.07217792993618811, 0.07204960294830597, 0.07184107032137951, 0.07174486498644507, 0.0714491725157005, 0.07128844805948628, 0.07101985633545292, 0.0708315136261592, 0.07061629159636197, 0.07032676958062264, 0.07007156266692315, 0.06982507691401697, 0.06965155888634511, 0.06957632202752657, 0.069351473468885, 0.0692417940768968, 0.0691502537454305, 0.06900707168623345, 0.06869976901932959, 0.0683600326445383, 0.06810401199206315, 0.06794135533162657, 0.06783677514257723, 0.06759057335195105, 0.06747544051521703, 0.06728264607939378, 0.06710400782603616, 0.06696455224728072, 0.06688882588445536]}}, \"_estimator_type\": \"classifier\"}"},"feature_names":["volt","rotate","pressure","vibration"],"feature_types":["float","float","float","float"],"gradient_booster":{"model":{"gbtree_model_param":{"num_parallel_tree":"1","num_trees":"100","size_leaf_vector":"0"},"tree_info":[0,0,0,0,0,0,0,0,0,0,0,0,0,0,0,0,0,0,0,0,0,0,0,0,0,0,0,0,0,0,0,0,0,0,0,0,0,0,0,0,0,0,0,0,0,0,0,0,0,0,0,0,0,0,0,0,0,0,0,0,0,0,0,0,0,0,0,0,0,0,0,0,0,0,0,0,0,0,0,0,0,0,0,0,0,0,0,0,0,0,0,0,0,0,0,0,0,0,0,0],"trees":[{"base_weights":[-1.6360804E0,-1.0192028E0,-1.6862086E0,-1.4217379E0,-7.7861756E-1,-1.7191476E0,-8.816667E-1,-1.1318836E0,-1.5621399E0,-4.1029692E-1,-9.761804E-1,-1.7653106E0,-1.3149209E0,-1.1280727E0,-6.08761E-1,-1.8641436E0,-8.3064675E-1,-1.7329441E0,-1.3403553E0,9.2319626E-1,-5.6120926E-1,-7.790267E-1,-1.3454368E0,-1.8072608E0,-1.4124315E0,-1.4434264E0,-1.0440018E0,-1.814714E0,-9.8264945E-1,-4.7114894E-1,-1.6417147E0,-1.9442359E0,-1.08E0,-1.4930733E0,-4.103896E-1,-1.3716952E0,-1.7988763E0,-1.4647992E0,-6.1554843E-1,-1.1363636E0,1.0705395E0,1.4310247E-1,-6.886675E-1,-5.5302536E-1,-1.3028473E0,-1.6029506E0,-5.2962023E-1,-1.5293813E0,-1.8474195E0,-1.5357692E0,-1.1413889E0,-1.4954042E0,-1.0605156E0,-1.9701493E0,-1.0036942E0,-1.9855072E0,-1.2886115E0,-1.1693277E0,-3.0926275E-1,-8.661605E-1,5.5985704E-2,-1.9707317E0,-1.2717537E0,-1.661017E0,-1.9923761E0,-1.8558558E0,-1.0752688E-1,-3.5014838E-1,-1.7277228E0,-2.5108224E-1,-1.8205128E0,-1.9711815E0,-6.6442955E-1,-1.941349E0,-1.5920085E0,-1.0156522E0,-1.7929713E0,-2.4200279E-1,-1.8035715E0,-5.1282052E-2,-1.8490566E0,-7.2727275E-1,1.1706036E0,1.2642336E0,-5.778612E-1,-8.4868735E-1,3.7777779E-1,-1.2684711E0,-4.4870156E-1,-1.3547523E0,2.0253165E-1,-1.682651E0,-1.2288288E0,4.6941045E-1,-1.3592592E0,-1.9037572E0,-1.4976543E0,-1.8661642E0,-1.5775768E0,-1.3417989E0,-1.6341751E0,-1.2118762E0,-3.3231893E-1,-1.5203884E0,-5.7039714E-1,-1.5341506E0,-7.430576E-1,-1.7468355E0,-9.543732E-1,-6.666667E-1,-1.9958224E0,2.1052632E-1,-1.6007533E0,-5.1318103E-1,-1.2578106E0,-4.119067E-1,1.2638037E0,-1.3156626E0,-3.0274615E-1,1.7152444E-1,-1.9705882E0,-1.1666666E0,-1.985E0,-8.0701756E-1,-1.9728813E0],"categories":[],"categories_nodes":[],"categories_segments":[],"categories_sizes":[],"default_left":[1,1,1,1,1,1,1,1,1,1,1,1,1,1,1,1,1,1,1,1,1,1,1,1,1,1,1,1,1,1,1,1,1,1,1,1,1,1,1,1,1,1,1,1,1,1,1,1,1,1,1,1,1,0,1,1,1,1,1,1,1,1,1,0,0,0,0,0,0,0,0,0,0,0,0,0,0,0,0,0,0,0,0,0,0,0,0,0,0,0,0,0,0,0,0,0,0,0,0,0,0,0,0,0,0,0,0,0,0,0,0,0,0,0,0,0,0,0,0,0,0,0,0,0,0],"id":0,"left_children":[1,3,5,7,9,11,13,15,17,19,21,23,25,27,29,31,33,35,37,39,41,43,45,47,49,51,53,55,57,59,61,63,65,67,69,71,73,75,77,79,81,83,85,87,89,91,93,95,97,99,101,103,105,-1,107,109,111,113,115,117,119,121,123,-1,-1,-1,-1,-1,-1,-1,-1,-1,-1,-1,-1,-1,-1,-1,-1,-1,-1,-1,-1,-1,-1,-1,-1,-1,-1,-1,-1,-1,-1,-1,-1,-1,-1,-1,-1,-1,-1,-1,-1,-1,-1,-1,-1,-1,-1,-1,-1,-1,-1,-1,-1,-1,-1,-1,-1,-1,-1,-1,-1,-1,-1],"loss_changes":[5.9539688E3,1.4009033E3,4.7188438E3,2.1858105E2,6.5911865E2,3.1907188E3,4.705537E2,3.8899487E2,1.3575586E2,6.3764575E2,4.2836426E2,2.2708438E3,6.0922656E2,3.6582764E2,4.7218457E2,3.0259888E1,3.4911414E2,4.6496094E1,1.4253564E2,9.900717E1,2.5547266E2,4.5479224E2,4.301914E2,1.5288125E3,5.438711E2,2.3517773E2,2.0884814E2,5.5150635E1,3.818181E2,6.1170734E2,4.505713E1,3.0476074E0,3.752539E1,1.3006885E2,1.7251802E2,1.35005E2,4.8052734E1,1.9812354E2,1.0374108E2,1.691844E1,5.5045227E1,3.537533E2,4.1142224E2,2.0018842E2,9.083508E1,4.4418213E1,4.0987527E2,2.0307422E2,6.03625E2,2.1186328E2,2.9091553E2,2.4114062E2,2.1315955E2,0E0,1.9676904E2,5.2402344E0,7.532492E1,1.3753198E2,1.07289764E2,4.2488184E2,2.951886E2,3.6071777E-2,5.925833E1,0E0,0E0,0E0,0E0,0E0,0E0,0E0,0E0,0E0,0E0,0E0,0E0,0E0,0E0,0E0,0E0,0E0,0E0,0E0,0E0,0E0,0E0,0E0,0E0,0E0,0E0,0E0,0E0,0E0,0E0,0E0,0E0,0E0,0E0,0E0,0E0,0E0,0E0,0E0,0E0,0E0,0E0,0E0,0E0,0E0,0E0,0E0,0E0,0E0,0E0,0E0,0E0,0E0,0E0,0E0,0E0,0E0,0E0,0E0,0E0,0E0,0E0],"parents":[2147483647,0,0,1,1,2,2,3,3,4,4,5,5,6,6,7,7,8,8,9,9,10,10,11,11,12,12,13,13,14,14,15,15,16,16,17,17,18,18,19,19,20,20,21,21,22,22,23,23,24,24,25,25,26,26,27,27,28,28,29,29,30,30,31,31,32,32,33,33,34,34,35,35,36,36,37,37,38,38,39,39,40,40,41,41,42,42,43,43,44,44,45,45,46,46,47,47,48,48,49,49,50,50,51,51,52,52,54,54,55,55,56,56,57,57,58,58,59,59,60,60,61,61,62,62],"right_children":[2,4,6,8,10,12,14,16,18,20,22,24,26,28,30,32,34,36,38,40,42,44,46,48,50,52,54,56,58,60,62,64,66,68,70,72,74,76,78,80,82,84,86,88,90,92,94,96,98,100,102,104,106,-1,108,110,112,114,116,118,120,122,124,-1,-1,-1,-1,-1,-1,-1,-1,-1,-1,-1,-1,-1,-1,-1,-1,-1,-1,-1,-1,-1,-1,-1,-1,-1,-1,-1,-1,-1,-1,-1,-1,-1,-1,-1,-1,-1,-1,-1,-1,-1,-1,-1,-1,-1,-1,-1,-1,-1,-1,-1,-1,-1,-1,-1,-1,-1,-1,-1,-1,-1,-1],"split_conditions":[3.649923E2,3.9277443E1,1.22959335E2,3.3205005E2,1.6283173E2,4.746244E1,1.2945471E2,3.067879E2,3.6851364E1,2.845504E2,3.5101434E2,1.9092334E2,5.1242817E1,1.5826471E2,4.9879688E2,3.878578E1,1.6994409E2,8.952878E1,1.8926352E2,9.178433E1,1.4293845E2,1.0441029E2,3.6272437E2,3.9780655E2,2.0104044E2,5.1286694E2,8.404139E1,4.8995825E2,4.5494324E1,4.5728055E2,1.7362292E2,9.0173676E1,1.7881534E2,1.4669951E2,1.9278178E2,3.5567926E2,1.04664246E2,1.641731E2,3.567072E2,2.5960272E2,2.478517E2,3.2336145E2,1.1626665E2,8.756917E1,5.4149284E1,1.896213E2,1.7004984E2,8.6222275E1,1.1532095E2,9.524094E1,1.1516403E2,1.1960813E2,1.694897E2,-5.910448E-1,3.892281E2,3.6670782E2,4.9294427E2,1.6199382E2,2.0164703E2,4.1908104E1,1.4405023E2,1.296352E2,5.213265E2,-4.983051E-1,-5.977129E-1,-5.567568E-1,-3.2258067E-2,-1.0504452E-1,-5.1831686E-1,-7.532468E-2,-5.4615384E-1,-5.913545E-1,-1.9932887E-1,-5.8240473E-1,-4.7760257E-1,-3.0469567E-1,-5.378914E-1,-7.260084E-2,-5.410715E-1,-1.5384616E-2,-5.54717E-1,-2.1818183E-1,3.511811E-1,3.792701E-1,-1.7335837E-1,-2.5460622E-1,1.1333334E-1,-3.8054135E-1,-1.3461047E-1,-4.064257E-1,6.0759496E-2,-5.047953E-1,-3.6864865E-1,1.4082314E-1,-4.077778E-1,-5.711272E-1,-4.4929633E-1,-5.5984926E-1,-4.7327304E-1,-4.025397E-1,-4.9025252E-1,-3.6356285E-1,-9.969568E-2,-4.5611653E-1,-1.7111915E-1,-4.602452E-1,-2.2291729E-1,-5.2405065E-1,-2.8631195E-1,-2.0000002E-1,-5.987468E-1,6.31579E-2,-4.80226E-1,-1.5395431E-1,-3.773432E-1,-1.23572014E-1,3.7914112E-1,-3.946988E-1,-9.0823844E-2,5.1457334E-2,-5.911765E-1,-3.5E-1,-5.9550005E-1,-2.4210528E-1,-5.918644E-1],"split_indices":[1,3,2,1,0,3,2,1,3,1,1,0,3,0,1,3,0,2,0,2,0,2,1,1,0,1,2,1,3,1,0,2,0,0,0,1,2,0,1,1,1,1,2,2,3,0,0,2,2,2,2,2,0,0,1,1,1,0,0,3,2,2,1,0,0,0,0,0,0,0,0,0,0,0,0,0,0,0,0,0,0,0,0,0,0,0,0,0,0,0,0,0,0,0,0,0,0,0,0,0,0,0,0,0,0,0,0,0,0,0,0,0,0,0,0,0,0,0,0,0,0,0,0,0,0],"split_type":[0,0,0,0,0,0,0,0,0,0,0,0,0,0,0,0,0,0,0,0,0,0,0,0,0,0,0,0,0,0,0,0,0,0,0,0,0,0,0,0,0,0,0,0,0,0,0,0,0,0,0,0,0,0,0,0,0,0,0,0,0,0,0,0,0,0,0,0,0,0,0,0,0,0,0,0,0,0,0,0,0,0,0,0,0,0,0,0,0,0,0,0,0,0,0,0,0,0,0,0,0,0,0,0,0,0,0,0,0,0,0,0,0,0,0,0,0,0,0,0,0,0,0,0,0],"sum_hessian":[1.925965E5,1.4476E4,1.781205E5,5.4135E3,9.0625E3,1.7111375E5,7.00675E3,1.7695E3,3.644E3,3.165E3,5.8975E3,1.5357225E5,1.75415E4,3.6805E3,3.32625E3,5.1425E2,1.25525E3,2.05475E3,1.58925E3,3.2125E2,2.84375E3,3.84675E3,2.05075E3,1.3725175E5,1.63205E4,1.1895E4,5.6465E3,6.4125E2,3.03925E3,2.9365E3,3.8975E2,4.6525E2,4.9E1,4.8625E2,7.69E2,3.205E2,1.73425E3,1.3555E3,2.3375E2,2.1E1,3.0025E2,4.3575E2,2.408E3,2.68875E3,1.158E3,1.558E3,4.9275E2,1.733575E4,1.19916E5,1.121325E4,5.10725E3,1.047075E4,1.42425E3,2.335E2,5.413E3,4.82E2,1.5925E2,2.379E3,6.6025E2,1.67825E3,1.25825E3,2.04E2,1.8575E2,7.275E1,3.925E2,2.675E1,2.225E1,8.325E1,4.03E2,6.92E2,7.7E1,1.725E2,1.48E2,1.022E3,7.1225E2,5.74E2,7.815E2,1.7875E2,5.5E1,8.75E0,1.225E1,1.55E1,2.8475E2,1.7025E2,2.655E2,2.094E3,3.14E2,3.4075E2,2.348E3,1.1195E3,3.85E1,1.2815E3,2.765E2,2.2375E2,2.69E2,1.34975E3,1.5986E4,1.121215E5,7.7945E3,3.779E3,7.43425E3,4.6975E3,4.0975E2,1.019475E4,2.76E2,5.7E2,8.5425E2,3.3475E2,5.07825E3,4.25E0,4.7775E2,2.75E1,1.3175E2,2.835E2,2.0955E3,6.205E2,3.975E1,9.3275E2,7.455E2,1.19125E3,6.7E1,5E0,1.99E2,1.13E2,7.275E1],"tree_param":{"num_deleted":"0","num_feature":"4","num_nodes":"125","size_leaf_vector":"0"}},{"base_weights":[-1.2316215E0,-9.3659604E-1,-1.2995418E0,-1.143189E0,-7.9425347E-1,-1.3275875E0,-6.490253E-1,-8.1726897E-1,-1.1908325E0,-4.823955E-1,-9.602913E-1,-1.3880606E0,-1.0712762E0,-5.943559E-1,-1.4072336E0,-1.3778275E0,-5.9433264E-1,-1.3918016E0,-1.1427844E0,8.859494E-2,-6.181247E-1,-1.006817E0,1.7637053E-1,-1.4298278E0,-1.0384234E0,-1.1571776E0,-7.499926E-1,-1.1952361E0,-5.105961E-1,-1.4805714E0,-3.3918697E-1,-1.4996612E0,-6.453879E-1,-1.2266253E0,-3.122724E-1,-1.4236481E0,-8.011492E-1,-9.046454E-1,-1.1846403E0,-6.2484E-2,1.3645494E0,-5.3137326E-1,-1.111569E0,-1.0307856E0,1.8461904E-1,-3.337303E-1,1.3109983E0,-1.4631034E0,-1.342797E0,-1.1558671E0,-8.0172354E-1,-1.20728E0,-6.395146E-1,-3.9621317E-1,-8.396229E-1,-3.460742E-1,-1.529323E0,-5.4710615E-1,5.22179E-1,-7.172344E-1,-1.5778744E0,-1.6372113E0,1.7790285E0,-1.2530575E0,-1.5429933E0,2.4698965E-1,-1.1561719E0,-2.8767556E-1,-1.5336539E0,-4.7438356E-1,4.1437465E-1,-1.5435811E0,-1.3222257E0,2.9750997E-1,-1.5907422E0,1.2299457E-1,-1.257052E0,-1.2353702E0,-1.0440663E0,7.82717E-1,-2.4585967E-1,1.8162793E0,-1.3966907E0,-3.7598377E-1,-8.3167285E-1,-1.2250124E0,-2.238726E-1,-1.562462E0,-9.854579E-1,-1.5561453E0,9.5055187E-1,5.464667E-1,-8.016347E-1,1.549973E0,-7.420062E-1,-1.3682243E0,-1.4908292E0,-1.3544437E0,-1.0019764E0,-1.2458999E0,-9.6681935E-1,-2.7306783E-1,-9.617901E-1,-1.2462006E0,-1.01174E0,-4.1103008E-1,-9.437887E-1,-1.3891151E0,-1.0623927E-1,-8.799383E-1,-2.2925775E-1,-1.5457764E0,5.4539824E-1,-1.6249857E0,-1.170419E0,-8.996166E-1,-4.0212065E-1,7.691632E-1,-1.7315277E0,1.0825622E0,-1.121926E0,-1.2439095E0,-1.6085489E0,3.7314928E-1,1.9171139E0],"categories":[],"categories_nodes":[],"categories_segments":[],"categories_sizes":[],"default_left":[1,1,1,1,1,1,1,1,1,1,1,1,1,1,1,1,1,1,1,1,1,1,1,1,1,1,1,1,1,1,1,1,1,1,1,1,1,1,1,1,1,1,1,1,1,1,1,1,1,1,1,1,1,1,1,1,1,1,1,1,1,0,1,0,0,0,0,0,0,0,0,0,0,0,0,0,0,0,0,0,0,0,0,0,0,0,0,0,0,0,0,0,0,0,0,0,0,0,0,0,0,0,0,0,0,0,0,0,0,0,0,0,0,0,0,0,0,0,0,0,0,0,0,0,0],"id":1,"left_children":[1,3,5,7,9,11,13,15,17,19,21,23,25,27,29,31,33,35,37,39,41,43,45,47,49,51,53,55,57,59,61,63,65,67,69,71,73,75,77,79,81,83,85,87,89,91,93,95,97,99,101,103,105,107,109,111,113,115,117,119,121,-1,123,-1,-1,-1,-1,-1,-1,-1,-1,-1,-1,-1,-1,-1,-1,-1,-1,-1,-1,-1,-1,-1,-1,-1,-1,-1,-1,-1,-1,-1,-1,-1,-1,-1,-1,-1,-1,-1,-1,-1,-1,-1,-1,-1,-1,-1,-1,-1,-1,-1,-1,-1,-1,-1,-1,-1,-1,-1,-1,-1,-1,-1,-1],"loss_changes":[3.6221562E3,9.9428906E2,2.6807344E3,2.1336133E2,1.0372207E3,2.1825469E3,2.5105591E2,2.195769E2,1.1467383E2,5.398163E2,6.917119E2,1.663375E3,7.4161523E2,2.8475488E2,3.145288E1,4.374463E1,2.2496384E2,4.2473145E1,9.58418E1,2.5810254E2,2.4029224E2,3.5893555E2,2.9853412E2,2.9295312E2,3.373662E2,5.497383E2,1.7972534E2,1.9604797E2,1.8798975E2,2.7200928E1,7.855203E1,2.64917E0,3.3657845E1,1.1182782E2,1.03282295E2,2.4704102E1,1.053588E2,5.280515E2,5.765918E1,1.858272E2,1.7934262E2,2.2309827E2,8.43634E1,2.952422E2,3.3292267E2,1.4709982E2,7.961987E1,1.9173438E2,1.105E2,1.3719238E2,3.4151074E2,1.4601367E2,1.2997815E2,3.3087378E2,1.11260254E2,2.1146701E2,1.5161499E1,2.4539648E2,9.622748E1,3.3961937E1,1.4564819E0,0E0,1.4068718E0,0E0,0E0,0E0,0E0,0E0,0E0,0E0,0E0,0E0,0E0,0E0,0E0,0E0,0E0,0E0,0E0,0E0,0E0,0E0,0E0,0E0,0E0,0E0,0E0,0E0,0E0,0E0,0E0,0E0,0E0,0E0,0E0,0E0,0E0,0E0,0E0,0E0,0E0,0E0,0E0,0E0,0E0,0E0,0E0,0E0,0E0,0E0,0E0,0E0,0E0,0E0,0E0,0E0,0E0,0E0,0E0,0E0,0E0,0E0,0E0,0E0,0E0],"parents":[2147483647,0,0,1,1,2,2,3,3,4,4,5,5,6,6,7,7,8,8,9,9,10,10,11,11,12,12,13,13,14,14,15,15,16,16,17,17,18,18,19,19,20,20,21,21,22,22,23,23,24,24,25,25,26,26,27,27,28,28,29,29,30,30,31,31,32,32,33,33,34,34,35,35,36,36,37,37,38,38,39,39,40,40,41,41,42,42,43,43,44,44,45,45,46,46,47,47,48,48,49,49,50,50,51,51,52,52,53,53,54,54,55,55,56,56,57,57,58,58,59,59,60,60,62,62],"right_children":[2,4,6,8,10,12,14,16,18,20,22,24,26,28,30,32,34,36,38,40,42,44,46,48,50,52,54,56,58,60,62,64,66,68,70,72,74,76,78,80,82,84,86,88,90,92,94,96,98,100,102,104,106,108,110,112,114,116,118,120,122,-1,124,-1,-1,-1,-1,-1,-1,-1,-1,-1,-1,-1,-1,-1,-1,-1,-1,-1,-1,-1,-1,-1,-1,-1,-1,-1,-1,-1,-1,-1,-1,-1,-1,-1,-1,-1,-1,-1,-1,-1,-1,-1,-1,-1,-1,-1,-1,-1,-1,-1,-1,-1,-1,-1,-1,-1,-1,-1,-1,-1,-1,-1,-1],"split_conditions":[3.9638306E2,3.947848E1,1.2291307E2,3.3198102E2,3.5790427E2,4.522356E1,5.213161E2,3.067879E2,1.5799124E2,1.5431287E2,1.2477333E2,1.9126341E2,5.08045E1,1.5502832E2,5.0255905E1,3.878578E1,1.6716074E2,1.21002914E2,1.6328293E2,3.564331E2,3.5210718E2,2.0642448E2,1.8669234E2,1.7698148E2,2.0104044E2,1.1425651E2,4.221648E2,3.635013E1,2.0363037E2,1.5180403E2,5.766244E2,9.0173676E1,2.7518536E2,1.4763748E2,3.2980328E2,3.7509903E2,3.638866E2,9.088681E1,3.796923E1,2.9219495E2,4.2486557E1,1.03501595E2,1.16041306E2,8.673909E1,3.8217578E2,3.6904736E2,3.8885376E2,4.27466E2,1.1821298E2,4.1205368E1,4.2466052E2,1.865613E2,4.6163507E2,9.502728E1,5.407377E2,1.3187956E2,1.5296849E2,4.3645694E2,4.7704028E2,3.4140198E1,1.5678085E2,-4.911634E-1,1.9041989E2,-3.7591726E-1,-4.6289802E-1,7.4096896E-2,-3.468516E-1,-8.630267E-2,-4.6009618E-1,-1.4231507E-1,1.243124E-1,-4.6307436E-1,-3.9666772E-1,8.925299E-2,-4.7722268E-1,3.6898375E-2,-3.771156E-1,-3.7061107E-1,-3.132199E-1,2.348151E-1,-7.37579E-2,5.448838E-1,-4.1900724E-1,-1.1279514E-1,-2.4950187E-1,-3.6750373E-1,-6.716178E-2,-4.6873862E-1,-2.9563737E-1,-4.668436E-1,2.8516558E-1,1.6394001E-1,-2.4049042E-1,4.6499193E-1,-2.2260186E-1,-4.104673E-1,-4.472488E-1,-4.0633312E-1,-3.0059293E-1,-3.7377E-1,-2.9004583E-1,-8.1920356E-2,-2.8853703E-1,-3.7386018E-1,-3.03522E-1,-1.2330903E-1,-2.8313664E-1,-4.1673455E-1,-3.187178E-2,-2.639815E-1,-6.877733E-2,-4.6373293E-1,1.6361947E-1,-4.8749572E-1,-3.5112572E-1,-2.69885E-1,-1.206362E-1,2.3074897E-1,-5.1945835E-1,3.2476866E-1,-3.365778E-1,-3.7317285E-1,-4.825647E-1,1.1194479E-1,5.751342E-1],"split_indices":[1,3,2,1,1,3,1,1,0,0,2,0,3,0,3,3,0,2,0,1,1,0,0,0,0,2,1,3,0,0,1,2,1,0,1,1,1,2,3,1,3,2,2,2,1,1,1,1,2,3,1,0,1,2,1,2,0,1,1,3,0,0,0,0,0,0,0,0,0,0,0,0,0,0,0,0,0,0,0,0,0,0,0,0,0,0,0,0,0,0,0,0,0,0,0,0,0,0,0,0,0,0,0,0,0,0,0,0,0,0,0,0,0,0,0,0,0,0,0,0,0,0,0,0,0],"split_type":[0,0,0,0,0,0,0,0,0,0,0,0,0,0,0,0,0,0,0,0,0,0,0,0,0,0,0,0,0,0,0,0,0,0,0,0,0,0,0,0,0,0,0,0,0,0,0,0,0,0,0,0,0,0,0,0,0,0,0,0,0,0,0,0,0,0,0,0,0,0,0,0,0,0,0,0,0,0,0,0,0,0,0,0,0,0,0,0,0,0,0,0,0,0,0,0,0,0,0,0,0,0,0,0,0,0,0,0,0,0,0,0,0,0,0,0,0,0,0,0,0,0,0,0,0],"sum_hessian":[1.8082258E5,3.384124E4,1.4698134E5,1.3802113E4,2.0039125E4,1.4090545E5,6.075891E3,1.7626069E3,1.2039506E4,6.9636543E3,1.307547E4,1.1400351E5,2.6901941E4,5.668926E3,4.069653E2,5.0005966E2,1.2625474E3,2.3176362E3,9.72187E3,1.3374733E3,5.626181E3,1.2561422E4,5.140478E2,1.0183528E5,1.2168223E4,2.1224553E4,5.6773896E3,6.919205E2,4.9770054E3,3.8045502E2,2.651028E1,4.2784467E2,7.221498E1,3.8843848E2,8.741088E2,2.19773E3,1.1990642E2,1.4566865E3,8.265184E3,1.1967263E3,1.4074692E2,4.786715E3,8.3946606E2,1.2313835E4,2.4758722E2,3.5510648E2,1.589413E2,7.365712E4,2.8178168E4,8.1303105E3,4.0379116E3,1.9350373E4,1.8741787E3,1.1487166E3,4.5286733E3,1.9593655E2,4.959839E2,4.8075225E3,1.694825E2,4.396028E1,3.3649475E2,1.6578312E1,9.931969E0,6.841443E1,3.5943024E2,2.6475962E1,4.573902E1,9.61946E1,2.9224387E2,7.149536E2,1.5915526E2,1.0004587E3,1.1972712E3,5.0400764E1,6.950565E1,3.721435E2,1.0845431E3,6.0677056E3,2.1974775E3,2.1277086E2,9.8395544E2,1.2125262E2,1.9494308E1,3.155934E3,1.6307809E3,7.440057E2,9.546039E1,9.647063E2,1.1349129E4,7.533617E1,1.7225105E2,1.2319349E2,2.31913E2,1.4258865E2,1.635264E1,1.666813E4,5.6988984E4,2.7244195E4,9.339719E2,5.503643E3,2.6266677E3,9.3908325E2,3.0988284E3,1.6133729E4,3.2166448E3,1.0717412E3,8.024375E2,2.587925E2,8.89924E2,4.247668E3,2.8100534E2,8.32153E1,1.1272125E2,3.8881982E2,1.0716406E2,1.399542E3,3.4079807E3,1.5333698E2,1.614552E1,7.762566E0,3.6197716E1,3.1802303E1,3.0469244E2,1.2193898E0,8.712579E0],"tree_param":{"num_deleted":"0","num_feature":"4","num_nodes":"125","size_leaf_vector":"0"}},{"base_weights":[-1.0021962E0,-7.2566843E-1,-1.0693806E0,-9.1709405E-1,-6.0806125E-1,-1.1061914E0,-5.941136E-1,-6.4731115E-1,-9.5756644E-1,-3.5845733E-1,-7.475476E-1,-1.1544871E0,-7.932099E-1,-7.204248E-1,-2.8869706E-1,-1.2254637E0,-4.4541687E-1,-1.1566485E0,-9.11373E-1,8.396118E-2,-4.5678526E-1,-7.832107E-1,1.182879E-1,-1.2090675E0,-8.581588E-1,-9.072211E-1,-5.4440445E-1,-8.523468E-1,-2.800786E-1,-1.7955327E-1,-1.0843271E0,-1.287974E0,-6.39385E-1,-9.052753E-1,-1.7314167E-1,-1.2850229E0,-1.0348E0,-9.9791735E-1,-7.938257E-1,2.6384225E-1,-6.1369383E-1,-3.968128E-1,-8.755773E-1,-1.319069E0,-7.387919E-1,-2.0537989E-1,9.7008926E-1,-1.2194849E0,-1.0022925E0,-9.419204E-1,-6.43307E-1,-1.0844201E0,-7.680621E-1,-1.3609599E0,-5.10457E-1,-8.761305E-1,4.9276966E-1,-1.1794703E0,-2.0104905E-3,-5.4614323E-1,1.819687E-1,-1.4138167E0,-7.4555147E-1,-1.0198114E0,-1.3384478E0,-1.3621373E0,2.6501667E-1,-1.0234357E0,6.895422E-1,-5.626079E-2,-1.4365561E0,-1.1209735E0,-1.3772825E0,-1.097644E0,-2.986576E-1,-8.257921E-1,-1.1386003E0,-4.488648E-1,-8.4762853E-1,-2.8070966E-3,8.7948364E-1,2.3004171E-1,-1.5279362E0,-5.9017396E-1,-2.3009714E-1,1.7605442E-1,-9.963956E-1,-1.1251967E0,-1.3464733E0,-8.2133865E-1,-4.0517887E-1,-9.454558E-1,9.265013E-2,1.097772E0,-1.3090011E0,-1.26396E0,-1.1738607E0,-1.1209782E0,-6.643728E-1,-7.368988E-1,-1.0511619E0,-2.4624698E-1,-7.626286E-1,-1.1817797E0,-8.3541274E-1,-8.486164E-1,-3.365206E-1,-1.4178303E0,-1.0336933E0,-1.3688345E0,-4.83618E-1,-7.34403E-1,-1.042836E0,9.9692893E-1,-1.5229701E0,-8.1285566E-1,-1.3637421E0,6.993321E-1,-2.525797E-1,-8.794956E-1,2.049123E-2,4.0669128E-1,-8.227571E-1,-4.1709346E-1,-1.2810832E0],"categories":[],"categories_nodes":[],"categories_segments":[],"categories_sizes":[],"default_left":[1,1,1,1,1,1,1,1,1,1,1,1,1,1,1,1,1,1,1,1,1,1,1,1,1,1,1,1,1,1,1,1,1,1,1,1,1,1,1,1,1,1,1,1,1,1,1,1,1,1,1,1,1,1,1,1,1,1,1,1,1,0,1,0,0,0,0,0,0,0,0,0,0,0,0,0,0,0,0,0,0,0,0,0,0,0,0,0,0,0,0,0,0,0,0,0,0,0,0,0,0,0,0,0,0,0,0,0,0,0,0,0,0,0,0,0,0,0,0,0,0,0,0,0,0],"id":2,"left_children":[1,3,5,7,9,11,13,15,17,19,21,23,25,27,29,31,33,35,37,39,41,43,45,47,49,51,53,55,57,59,61,63,65,67,69,71,73,75,77,79,81,83,85,87,89,91,93,95,97,99,101,103,105,107,109,111,113,115,117,119,121,-1,123,-1,-1,-1,-1,-1,-1,-1,-1,-1,-1,-1,-1,-1,-1,-1,-1,-1,-1,-1,-1,-1,-1,-1,-1,-1,-1,-1,-1,-1,-1,-1,-1,-1,-1,-1,-1,-1,-1,-1,-1,-1,-1,-1,-1,-1,-1,-1,-1,-1,-1,-1,-1,-1,-1,-1,-1,-1,-1,-1,-1,-1,-1],"loss_changes":[2.964125E3,7.017969E2,2.2455781E3,1.2899414E2,6.7265674E2,1.8003125E3,3.5592822E2,1.805672E2,9.3853516E1,3.0154407E2,3.8292285E2,1.6685625E3,4.5146777E2,3.7910303E2,2.3449364E2,1.3868286E1,1.440315E2,2.9014648E1,8.44707E1,1.5842723E2,1.4207788E2,2.824546E2,1.3565959E2,1.8654688E2,2.884131E2,2.685547E2,1.3816101E2,1.6116748E2,3.7684604E2,3.1522717E2,3.531479E1,3.5264893E0,2.6922981E1,8.136569E1,1.06913925E2,1.2691162E1,4.595215E1,1.15856445E2,6.567285E1,1.6470734E2,1.9999374E2,1.5982684E2,9.0323364E1,3.321045E0,3.025503E2,7.880001E1,4.085701E1,1.6691406E2,1.6716895E2,2.5797363E2,2.1339038E2,1.1545508E2,2.125498E2,2.2445068E0,1.10171265E2,1.1588721E2,9.088077E1,2.2931671E1,2.0262071E2,2.2307019E2,2.7080524E2,0E0,2.8095322E1,0E0,0E0,0E0,0E0,0E0,0E0,0E0,0E0,0E0,0E0,0E0,0E0,0E0,0E0,0E0,0E0,0E0,0E0,0E0,0E0,0E0,0E0,0E0,0E0,0E0,0E0,0E0,0E0,0E0,0E0,0E0,0E0,0E0,0E0,0E0,0E0,0E0,0E0,0E0,0E0,0E0,0E0,0E0,0E0,0E0,0E0,0E0,0E0,0E0,0E0,0E0,0E0,0E0,0E0,0E0,0E0,0E0,0E0,0E0,0E0,0E0,0E0],"parents":[2147483647,0,0,1,1,2,2,3,3,4,4,5,5,6,6,7,7,8,8,9,9,10,10,11,11,12,12,13,13,14,14,15,15,16,16,17,17,18,18,19,19,20,20,21,21,22,22,23,23,24,24,25,25,26,26,27,27,28,28,29,29,30,30,31,31,32,32,33,33,34,34,35,35,36,36,37,37,38,38,39,39,40,40,41,41,42,42,43,43,44,44,45,45,46,46,47,47,48,48,49,49,50,50,51,51,52,52,53,53,54,54,55,55,56,56,57,57,58,58,59,59,60,60,62,62],"right_children":[2,4,6,8,10,12,14,16,18,20,22,24,26,28,30,32,34,36,38,40,42,44,46,48,50,52,54,56,58,60,62,64,66,68,70,72,74,76,78,80,82,84,86,88,90,92,94,96,98,100,102,104,106,108,110,112,114,116,118,120,122,-1,124,-1,-1,-1,-1,-1,-1,-1,-1,-1,-1,-1,-1,-1,-1,-1,-1,-1,-1,-1,-1,-1,-1,-1,-1,-1,-1,-1,-1,-1,-1,-1,-1,-1,-1,-1,-1,-1,-1,-1,-1,-1,-1,-1,-1,-1,-1,-1,-1,-1,-1,-1,-1,-1,-1,-1,-1,-1,-1,-1,-1,-1,-1],"split_conditions":[3.9640433E2,3.9233746E1,1.1882927E2,3.3192847E2,3.5790427E2,4.680078E1,1.2977242E2,3.067879E2,1.5799124E2,1.5347769E2,1.25281265E2,1.8783904E2,5.0983772E1,4.5053864E1,4.9843964E2,3.878578E1,1.705937E2,3.6213867E1,3.8101587E2,4.560295E1,3.527819E2,8.699767E1,1.8842366E2,1.1483139E2,1.9994653E2,9.869681E1,8.4205475E1,2.0864903E2,1.645209E2,4.5728055E2,1.7362292E2,9.0173676E1,1.7973346E2,3.3143204E2,1.9355118E2,1.4868262E2,1.1955565E2,3.619461E2,8.8643005E1,3.5152637E2,3.2744882E2,4.3166016E1,1.5694733E2,4.009614E1,3.9145383E2,4.224429E1,3.9189136E2,1.6845773E2,4.265027E1,9.526863E1,4.2421405E2,4.875039E2,5.0930487E2,8.3489006E1,1.43742E2,4.609959E2,4.6407965E2,4.6363197E1,1.696131E2,4.3091988E1,1.7900064E2,-4.24145E-1,4.1043106E1,-3.0594343E-1,-4.0153435E-1,-4.0864122E-1,7.9505004E-2,-3.0703074E-1,2.0686266E-1,-1.6878238E-2,-4.3096685E-1,-3.3629206E-1,-4.1318476E-1,-3.292932E-1,-8.9597285E-2,-2.4773763E-1,-3.4158012E-1,-1.3465944E-1,-2.5428858E-1,-8.42129E-4,2.6384512E-1,6.9012515E-2,-4.5838088E-1,-1.770522E-1,-6.9029145E-2,5.2816328E-2,-2.989187E-1,-3.37559E-1,-4.0394202E-1,-2.4640161E-1,-1.2155367E-1,-2.8363675E-1,2.7795041E-2,3.293316E-1,-3.9270034E-1,-3.7918803E-1,-3.5215822E-1,-3.362935E-1,-1.9931185E-1,-2.2106965E-1,-3.1534857E-1,-7.387409E-2,-2.287886E-1,-3.5453394E-1,-2.5062382E-1,-2.5458494E-1,-1.0095619E-1,-4.2534912E-1,-3.10108E-1,-4.1065037E-1,-1.4508541E-1,-2.2032091E-1,-3.128508E-1,2.990787E-1,-4.5689103E-1,-2.4385671E-1,-4.0912265E-1,2.0979965E-1,-7.577391E-2,-2.638487E-1,6.1473693E-3,1.2200739E-1,-2.4682714E-1,-1.2512805E-1,-3.84325E-1],"split_indices":[1,3,2,1,1,3,2,1,0,0,2,0,3,3,1,3,0,3,1,3,1,2,0,2,0,2,2,0,0,1,0,2,0,1,0,0,2,1,2,1,1,3,0,3,1,3,1,0,3,2,1,1,1,2,0,1,1,3,0,3,0,0,3,0,0,0,0,0,0,0,0,0,0,0,0,0,0,0,0,0,0,0,0,0,0,0,0,0,0,0,0,0,0,0,0,0,0,0,0,0,0,0,0,0,0,0,0,0,0,0,0,0,0,0,0,0,0,0,0,0,0,0,0,0,0],"split_type":[0,0,0,0,0,0,0,0,0,0,0,0,0,0,0,0,0,0,0,0,0,0,0,0,0,0,0,0,0,0,0,0,0,0,0,0,0,0,0,0,0,0,0,0,0,0,0,0,0,0,0,0,0,0,0,0,0,0,0,0,0,0,0,0,0,0,0,0,0,0,0,0,0,0,0,0,0,0,0,0,0,0,0,0,0,0,0,0,0,0,0,0,0,0,0,0,0,0,0,0,0,0,0,0,0,0,0,0,0,0,0,0,0,0,0,0,0,0,0,0,0,0,0,0,0],"sum_hessian":[1.5958842E5,3.1196605E4,1.2839181E5,1.1869763E4,1.9326842E4,1.1916112E5,9.230691E3,1.5506115E3,1.0319151E4,6.92983E3,1.2397012E4,1.0322926E5,1.5931858E4,6.5290938E3,2.7015972E3,4.0002216E2,1.1505892E3,1.9389071E3,8.380244E3,1.2601292E3,5.6697007E3,1.1906681E4,4.9033127E2,8.717041E4,1.6058858E4,1.092363E4,5.008228E3,5.023256E3,1.5058381E3,2.3767786E3,3.2481857E2,3.603863E2,3.9635887E1,4.2703122E2,7.2355804E2,9.395213E2,9.993858E2,4.822318E3,3.5579265E3,1.0023169E3,2.5781226E2,4.9611885E3,7.085121E2,9.092318E2,1.0997449E4,3.5586752E2,1.3446378E2,8.298468E4,4.1857227E3,1.1551889E4,4.506969E3,4.8020786E3,6.121552E3,1.9834106E2,4.809887E3,4.9363223E3,8.693321E1,3.5485214E2,1.150986E3,1.179864E3,1.1969146E3,1.6305736E2,1.6176123E2,6.0446217E1,2.9994006E2,2.1749033E1,1.7886852E1,3.979084E2,2.9122849E1,6.632445E2,6.0313484E1,3.4291846E2,5.966028E2,9.20327E2,7.905881E1,2.1718875E3,2.6504307E3,4.813107E2,3.0766157E3,7.0008734E2,3.0222952E2,1.3446533E2,1.2334692E2,2.2958555E3,2.6653333E3,7.296346E1,6.3554865E2,1.17814064E2,7.914177E2,8.814893E3,2.182556E3,1.01542404E2,2.543251E2,1.2782111E2,6.6426616E0,4.200799E4,4.097669E4,3.09601E3,1.0897126E3,4.0182642E3,7.5336245E3,1.0421451E3,3.4648242E3,3.4495789E3,1.3524996E3,5.1577974E3,9.637543E2,1.661382E2,3.220286E1,1.4431548E2,4.665572E3,2.6709626E3,2.2653599E3,6.994468E1,1.6988525E1,1.20508286E2,2.3434386E2,3.024995E2,8.4848645E2,7.4249835E2,4.3736563E2,9.7862506E2,2.182895E2,1.0136799E2,6.0393246E1],"tree_param":{"num_deleted":"0","num_feature":"4","num_nodes":"125","size_leaf_vector":"0"}},{"base_weights":[-8.374093E-1,-5.6861776E-1,-9.0735626E-1,-7.111876E-1,-4.368448E-1,-9.777775E-1,-6.425067E-1,-5.686827E-1,-7.9682076E-1,-1.8770684E-1,-5.485333E-1,-1.007275E0,-3.5891235E-1,-6.9923544E-1,-2.9163745E-1,-7.73121E-1,-4.3969738E-1,-9.329412E-1,-7.215766E-1,-1.6011135E-1,-1.1264223E0,-1.2294663E0,-5.014085E-1,-1.0614923E0,-6.6227394E-1,-8.7573177E-1,-1.9280298E-1,-8.066432E-1,-4.1739222E-1,-7.617662E-1,-1.17790006E-1,-4.6256253E-1,-9.1381705E-1,-5.955311E-1,-1.01041585E-1,-1.0344138E0,-4.7467685E-1,-8.339743E-1,-6.135856E-1,-4.010852E-1,-5.194718E-2,3.9183718E-1,-1.5994313E0,-1.2605752E0,-9.0198195E-1,-5.4047394E-1,2.2943412E-1,-1.0790514E0,-8.333623E-1,-7.69783E-1,-4.6119142E-1,-9.5103985E-1,1.5195862E0,1.1764852E-1,-4.4995612E-1,-9.221856E-1,-7.2517115E-1,-1.1857072E0,-3.8477576E-1,-2.0253809E-1,-1.0175494E0,3.5913408E-1,-2.4501503E-1,-6.4504355E-1,9.0917057E-1,-1.2012377E0,-7.5520915E-1,4.5527717E-1,-6.458551E-1,6.014118E-1,-7.466324E-1,-1.2993128E0,-9.617493E-1,-1.1201693E0,3.8859722E-1,-1.1739498E0,-5.931614E-1,-7.2374797E-1,-2.686463E-1,-6.7945755E-1,1.1760741E0,2.762622E-1,-3.426156E-1,1.6105837E0,-1.4262531E0,-1.4452351E0,-1.2353648E0,-1.1482698E0,2.2971909E-1,-6.187963E-1,-2.1059489E-1,6.892748E-1,-1.0443124E-1,-1.1174811E0,-9.812985E-1,-6.48166E-1,-1.0241574E0,-6.25077E-1,-9.721985E-1,-9.7299E-1,-3.6544442E-1,-1.156215E0,-5.650755E-1,1.9469123E0,-1.5311005E0,-1.2749624E-1,4.7675884E-1,-1.5666108E0,-3.8809738E-1,-9.622057E-1,-6.837151E-1,-7.891082E-1,-3.8281277E-1,-1.2917128E0,-6.389896E-1,-8.15663E-2,-4.6527424E-1,1.137328E0,-8.3743286E-1,-1.3029559E0,-7.6945114E-1,1.1236192E0,-6.0642684E-1,-4.755319E-1,5.008168E-2],"categories":[],"categories_nodes":[],"categories_segments":[],"categories_sizes":[],"default_left":[1,1,1,1,1,1,1,1,1,1,1,1,1,1,1,1,1,1,1,1,1,1,1,1,1,1,1,1,1,1,1,1,1,1,1,1,1,1,1,1,1,1,0,1,1,1,1,1,1,1,1,1,1,1,1,1,1,1,1,1,1,1,1,0,0,0,0,0,0,0,0,0,0,0,0,0,0,0,0,0,0,0,0,0,0,0,0,0,0,0,0,0,0,0,0,0,0,0,0,0,0,0,0,0,0,0,0,0,0,0,0,0,0,0,0,0,0,0,0,0,0,0,0,0,0],"id":3,"left_children":[1,3,5,7,9,11,13,15,17,19,21,23,25,27,29,31,33,35,37,39,41,43,45,47,49,51,53,55,57,59,61,63,65,67,69,71,73,75,77,79,81,83,-1,85,87,89,91,93,95,97,99,101,103,105,107,109,111,113,115,117,119,121,123,-1,-1,-1,-1,-1,-1,-1,-1,-1,-1,-1,-1,-1,-1,-1,-1,-1,-1,-1,-1,-1,-1,-1,-1,-1,-1,-1,-1,-1,-1,-1,-1,-1,-1,-1,-1,-1,-1,-1,-1,-1,-1,-1,-1,-1,-1,-1,-1,-1,-1,-1,-1,-1,-1,-1,-1,-1,-1,-1,-1,-1,-1],"loss_changes":[2.5943594E3,5.3515625E2,2.0419688E3,1.6659229E2,4.1212524E2,1.5789062E3,4.5771777E2,1.3524243E2,8.687793E1,1.1864671E2,3.276018E2,1.5438594E3,3.3785257E2,5.991543E2,2.61747E2,8.6429565E1,1.6643665E2,1.4085547E2,6.636157E1,1.1615813E2,9.458397E1,5.600769E0,2.7329883E2,2.849297E2,2.4213672E2,1.7415088E2,2.3803665E2,1.3430078E2,1.3653302E2,1.2347781E2,1.4207016E2,1.5622641E2,6.1408203E1,1.14541016E2,4.5187967E2,4.663623E1,3.0852643E2,2.2009521E2,1.06719604E2,6.0699817E2,2.9369586E2,7.293945E1,0E0,1.0147095E0,1.7235405E1,2.3454297E2,7.471415E1,2.478125E2,1.7969434E2,2.1343945E2,1.912644E2,7.290259E1,4.1527397E1,1.1902404E2,1.1202994E2,5.5893066E1,1.8386084E2,1.204837E1,1.2799078E2,2.3286111E2,4.0990967E1,3.6471912E2,1.25720566E2,0E0,0E0,0E0,0E0,0E0,0E0,0E0,0E0,0E0,0E0,0E0,0E0,0E0,0E0,0E0,0E0,0E0,0E0,0E0,0E0,0E0,0E0,0E0,0E0,0E0,0E0,0E0,0E0,0E0,0E0,0E0,0E0,0E0,0E0,0E0,0E0,0E0,0E0,0E0,0E0,0E0,0E0,0E0,0E0,0E0,0E0,0E0,0E0,0E0,0E0,0E0,0E0,0E0,0E0,0E0,0E0,0E0,0E0,0E0,0E0,0E0,0E0],"parents":[2147483647,0,0,1,1,2,2,3,3,4,4,5,5,6,6,7,7,8,8,9,9,10,10,11,11,12,12,13,13,14,14,15,15,16,16,17,17,18,18,19,19,20,20,21,21,22,22,23,23,24,24,25,25,26,26,27,27,28,28,29,29,30,30,31,31,32,32,33,33,34,34,35,35,36,36,37,37,38,38,39,39,40,40,41,41,43,43,44,44,45,45,46,46,47,47,48,48,49,49,50,50,51,51,52,52,53,53,54,54,55,55,56,56,57,57,58,58,59,59,60,60,61,61,62,62],"right_children":[2,4,6,8,10,12,14,16,18,20,22,24,26,28,30,32,34,36,38,40,42,44,46,48,50,52,54,56,58,60,62,64,66,68,70,72,74,76,78,80,82,84,-1,86,88,90,92,94,96,98,100,102,104,106,108,110,112,114,116,118,120,122,124,-1,-1,-1,-1,-1,-1,-1,-1,-1,-1,-1,-1,-1,-1,-1,-1,-1,-1,-1,-1,-1,-1,-1,-1,-1,-1,-1,-1,-1,-1,-1,-1,-1,-1,-1,-1,-1,-1,-1,-1,-1,-1,-1,-1,-1,-1,-1,-1,-1,-1,-1,-1,-1,-1,-1,-1,-1,-1,-1,-1,-1,-1],"split_conditions":[3.9638306E2,4.0641994E1,4.5194813E1,3.6200342E2,3.509657E2,1.2380357E2,1.14269165E2,3.6564434E1,1.6559894E2,1.9839835E2,8.6996086E1,1.900628E2,4.3651007E2,5.0289856E1,1.645209E2,9.424724E1,3.5202893E2,1.1099489E2,3.709343E1,9.616008E1,4.1426277E1,8.65027E1,1.2477333E2,1.1552292E2,2.0027725E2,2.1575584E2,4.666447E2,1.6821872E2,8.434435E1,4.321353E2,4.2130356E2,3.5983536E2,1.0180278E2,2.6841327E2,1.6373926E2,3.7336368E2,3.875709E2,9.904976E1,1.8778308E2,1.8986299E2,1.02820145E2,9.4536804E1,-4.798294E-1,3.5790656E2,1.8978394E2,3.9144714E2,3.6904736E2,1.7660965E2,4.5645132E2,4.6593555E2,9.089848E1,4.128831E1,4.1402484E2,4.5727325E2,3.2326538E1,1.084801E2,5.0919287E2,5.1010693E2,4.2216937E2,1.158638E2,1.5630484E2,1.7430403E2,1.8034113E2,-1.9351308E-1,2.7275118E-1,-3.6037132E-1,-2.2656275E-1,1.3658316E-1,-1.9375655E-1,1.8042356E-1,-2.2398973E-1,-3.8979387E-1,-2.885248E-1,-3.360508E-1,1.1657917E-1,-3.5218495E-1,-1.7794843E-1,-2.171244E-1,-8.059389E-2,-2.0383728E-1,3.5282224E-1,8.2878664E-2,-1.02784686E-1,4.8317513E-1,-4.2787594E-1,-4.3357056E-1,-3.7060946E-1,-3.4448093E-1,6.891573E-2,-1.8563889E-1,-6.317847E-2,2.0678245E-1,-3.1329375E-2,-3.3524436E-1,-2.9438958E-1,-1.9444981E-1,-3.0724722E-1,-1.8752311E-1,-2.9165956E-1,-2.91897E-1,-1.09633334E-1,-3.468645E-1,-1.6952266E-1,5.840737E-1,-4.5933017E-1,-3.8248874E-2,1.4302766E-1,-4.6998325E-1,-1.1642922E-1,-2.8866172E-1,-2.0511454E-1,-2.3673247E-1,-1.1484384E-1,-3.8751385E-1,-1.916969E-1,-2.446989E-2,-1.3958228E-1,3.411984E-1,-2.5122988E-1,-3.9088678E-1,-2.3083535E-1,3.3708578E-1,-1.8192805E-1,-1.4265957E-1,1.5024505E-2],"split_indices":[1,3,3,1,1,2,2,3,0,0,2,0,1,3,0,2,1,2,3,2,3,2,2,2,0,0,1,0,2,1,1,1,2,1,0,1,1,2,0,0,2,2,0,1,0,1,1,0,1,1,2,3,1,1,3,2,1,1,1,2,0,0,0,0,0,0,0,0,0,0,0,0,0,0,0,0,0,0,0,0,0,0,0,0,0,0,0,0,0,0,0,0,0,0,0,0,0,0,0,0,0,0,0,0,0,0,0,0,0,0,0,0,0,0,0,0,0,0,0,0,0,0,0,0,0],"split_type":[0,0,0,0,0,0,0,0,0,0,0,0,0,0,0,0,0,0,0,0,0,0,0,0,0,0,0,0,0,0,0,0,0,0,0,0,0,0,0,0,0,0,0,0,0,0,0,0,0,0,0,0,0,0,0,0,0,0,0,0,0,0,0,0,0,0,0,0,0,0,0,0,0,0,0,0,0,0,0,0,0,0,0,0,0,0,0,0,0,0,0,0,0,0,0,0,0,0,0,0,0,0,0,0,0,0,0,0,0,0,0,0,0,0,0,0,0,0,0,0,0,0,0,0,0],"sum_hessian":[1.3801661E5,2.8501258E4,1.0951535E5,1.3687677E4,1.4813582E4,8.6510305E4,2.3005047E4,5.1406294E3,8.547047E3,4.5861553E3,1.0227427E4,8.257388E4,3.9364163E3,1.9802393E4,3.2026528E3,1.9867263E3,3.153903E3,3.0386265E3,5.5084204E3,4.4563228E3,1.2983229E2,6.6036383E2,9.567063E3,7.1357836E4,1.1216048E4,9.564189E2,2.9799976E3,1.433688E4,5.465513E3,8.636733E2,2.3389795E3,6.207757E2,1.3659507E3,2.1594607E3,9.9444244E2,2.4867356E3,5.518908E2,2.6958438E3,2.8125764E3,1.3797454E3,3.0765774E3,3.0881323E1,9.8950966E1,6.0047345E2,5.9890358E1,9.081874E3,4.851894E2,6.625455E4,5.103294E3,7.306689E3,3.9093591E3,9.278505E2,2.8568384E1,1.3503329E3,1.6296646E3,5.924513E3,8.412367E3,2.2113335E2,5.24438E3,2.7161758E2,5.9205566E2,4.9217123E2,1.8468082E3,5.4835767E2,7.2418E1,4.8339496E2,8.825557E2,9.8324005E1,2.0611367E3,4.7628043E2,5.18162E2,5.316653E2,1.9550704E3,3.1560626E2,2.3628456E2,1.1161738E3,1.57967E3,2.130929E3,6.816475E2,1.1732357E3,2.0650969E2,1.4449999E3,1.6315776E3,1.8556328E1,1.2324995E1,6.5364685E1,5.3510876E2,4.9174133E1,1.0716224E1,7.3386104E3,1.7432635E3,2.0364279E2,2.815466E2,4.7550477E4,1.8704066E4,2.5918743E3,2.5114194E3,4.2631025E3,3.0435867E3,6.1465704E2,3.2947021E3,6.0450543E2,3.233451E2,2.5375687E1,3.1926978E0,8.028896E2,5.4744336E2,8.4262314E1,1.5454022E3,5.0705405E3,8.5397253E2,7.0874473E3,1.3249197E3,1.840788E2,3.7054546E1,1.1006464E3,4.1437334E3,8.7071884E1,1.845457E2,2.733492E2,3.1870648E2,2.7459573E2,2.175755E2,1.0365154E3,8.1029285E2],"tree_param":{"num_deleted":"0","num_feature":"4","num_nodes":"125","size_leaf_vector":"0"}},{"base_weights":[-7.025853E-1,-4.459551E-1,-7.7598464E-1,-5.733332E-1,-3.3372578E-1,-8.559535E-1,-5.236602E-1,-2.91146E-1,-6.202928E-1,-2.0819588E-1,-5.398727E-1,-9.082258E-1,-4.9206433E-1,-5.6401664E-1,-9.4033085E-2,-6.3468325E-1,-6.2719464E-2,-7.2256774E-1,-5.2628744E-1,-1.07581556E-1,-4.5816135E-1,-5.947811E-1,1.0134919E0,-9.7855335E-1,-5.8519596E-1,-6.1217695E-1,-1.9233787E-1,-6.556981E-1,-3.4767067E-1,-1.264756E0,1.2986641E-2,2.0531437E-1,-8.3440477E-1,4.8044868E-2,-1.2286584E0,-8.843173E-1,-5.903013E-1,-6.200516E-1,-5.7648525E-2,-5.961791E-1,-1.5521461E-4,3.3668992E-1,-5.652393E-1,-7.7233577E-1,-3.0269068E-1,1.4507887E0,2.394146E-1,-8.552551E-1,-1.0243422E0,-6.6587824E-1,-3.9473566E-1,-4.295923E-1,-8.6951125E-1,-5.3501374E-1,3.2610152E-2,-6.90833E-1,-2.670993E-1,-3.2298788E-1,-1.264438E0,1.0864617E0,-1.2956631E0,2.4923778E-1,-2.820268E-1,-1.6599014E-1,1.3561727E0,-9.65543E-1,4.527416E-1,-2.955681E-2,1.407759E0,3.3182025E-1,-1.3148869E0,-6.227938E-1,-1.1109499E0,-7.9327875E-1,-4.1777158E-1,-5.720573E-1,-8.6659116E-1,5.1385117E-1,-6.1950874E-1,2.4352329E-2,-8.8801944E-1,-7.3908545E-2,6.0910505E-1,-1.5418828E0,6.491548E-1,-1.0717875E-2,-6.966889E-1,-1.0171567E0,-5.6671816E-1,2.9963356E-1,-7.3611534E-1,-1.0698618E0,1.8484967E0,1.3412114E0,-4.3456647E-1,-9.0486604E-1,-5.7161397E-1,-1.0607725E0,-9.239838E-1,-5.054603E-1,-8.464171E-1,-6.717029E-1,-2.340495E-2,-5.067375E-1,6.7067635E-1,-1.0055499E0,-5.5455154E-1,-5.7549787E-1,1.1560271E0,5.661286E-1,-1.8161935E-1,-7.39963E-1,-4.513287E-1,-5.538236E-1,-1.1263419E-1,-8.2738E-1,-2.7888414E-1,-1.4193499E0,3.1380615E-1,2.675128E-1,-1.3085628E0,-8.787547E-1,3.2753628E-1,1.4130856E-1,-8.095999E-1],"categories":[],"categories_nodes":[],"categories_segments":[],"categories_sizes":[],"default_left":[1,1,1,1,1,1,1,1,1,1,1,1,1,1,1,1,1,1,1,1,1,1,1,1,1,1,1,1,1,1,1,1,1,1,1,1,1,1,1,1,1,1,1,1,1,1,1,1,1,1,1,1,1,1,1,1,1,1,1,0,1,1,1,0,0,0,0,0,0,0,0,0,0,0,0,0,0,0,0,0,0,0,0,0,0,0,0,0,0,0,0,0,0,0,0,0,0,0,0,0,0,0,0,0,0,0,0,0,0,0,0,0,0,0,0,0,0,0,0,0,0,0,0,0,0],"id":4,"left_children":[1,3,5,7,9,11,13,15,17,19,21,23,25,27,29,31,33,35,37,39,41,43,45,47,49,51,53,55,57,59,61,63,65,67,69,71,73,75,77,79,81,83,85,87,89,91,93,95,97,99,101,103,105,107,109,111,113,115,117,-1,119,121,123,-1,-1,-1,-1,-1,-1,-1,-1,-1,-1,-1,-1,-1,-1,-1,-1,-1,-1,-1,-1,-1,-1,-1,-1,-1,-1,-1,-1,-1,-1,-1,-1,-1,-1,-1,-1,-1,-1,-1,-1,-1,-1,-1,-1,-1,-1,-1,-1,-1,-1,-1,-1,-1,-1,-1,-1,-1,-1,-1,-1,-1,-1],"loss_changes":[2.244961E3,3.788213E2,1.8698164E3,1.6435962E2,3.646797E2,1.3382852E3,3.8673975E2,1.3912431E2,1.0195972E2,2.2034665E2,4.556062E2,1.3974648E3,3.1821582E2,4.042622E2,2.4017249E2,1.1897241E2,1.3776102E2,1.0848706E2,2.4384521E2,3.2802704E2,2.1421771E2,2.6701672E2,6.1429092E1,2.844297E2,1.6884766E2,2.9620605E2,1.9513234E2,1.9535889E2,1.3698828E2,1.3075104E1,1.22545105E2,5.8695137E1,9.703934E1,1.0289011E2,1.288887E1,1.350459E2,9.793817E1,5.4226196E1,2.9779538E2,2.0400928E2,2.3029764E2,1.7661166E2,1.6155774E2,1.6072473E2,5.092486E2,1.18687805E2,5.0394817E1,1.921377E2,1.3373047E2,2.2341113E2,3.370253E2,3.139167E2,1.1165076E2,6.934213E1,1.7486368E2,1.5420996E2,5.2604736E1,1.3133008E2,3.9282043E1,0E0,3.5547485E0,8.651773E1,1.7474568E2,0E0,0E0,0E0,0E0,0E0,0E0,0E0,0E0,0E0,0E0,0E0,0E0,0E0,0E0,0E0,0E0,0E0,0E0,0E0,0E0,0E0,0E0,0E0,0E0,0E0,0E0,0E0,0E0,0E0,0E0,0E0,0E0,0E0,0E0,0E0,0E0,0E0,0E0,0E0,0E0,0E0,0E0,0E0,0E0,0E0,0E0,0E0,0E0,0E0,0E0,0E0,0E0,0E0,0E0,0E0,0E0,0E0,0E0,0E0,0E0,0E0,0E0],"parents":[2147483647,0,0,1,1,2,2,3,3,4,4,5,5,6,6,7,7,8,8,9,9,10,10,11,11,12,12,13,13,14,14,15,15,16,16,17,17,18,18,19,19,20,20,21,21,22,22,23,23,24,24,25,25,26,26,27,27,28,28,29,29,30,30,31,31,32,32,33,33,34,34,35,35,36,36,37,37,38,38,39,39,40,40,41,41,42,42,43,43,44,44,45,45,46,46,47,47,48,48,49,49,50,50,51,51,52,52,53,53,54,54,55,55,56,56,57,57,58,58,60,60,61,61,62,62],"right_children":[2,4,6,8,10,12,14,16,18,20,22,24,26,28,30,32,34,36,38,40,42,44,46,48,50,52,54,56,58,60,62,64,66,68,70,72,74,76,78,80,82,84,86,88,90,92,94,96,98,100,102,104,106,108,110,112,114,116,118,-1,120,122,124,-1,-1,-1,-1,-1,-1,-1,-1,-1,-1,-1,-1,-1,-1,-1,-1,-1,-1,-1,-1,-1,-1,-1,-1,-1,-1,-1,-1,-1,-1,-1,-1,-1,-1,-1,-1,-1,-1,-1,-1,-1,-1,-1,-1,-1,-1,-1,-1,-1,-1,-1,-1,-1,-1,-1,-1,-1,-1,-1,-1,-1,-1],"split_conditions":[3.9693256E2,4.0641994E1,4.483426E1,3.31945E2,3.7720453E2,1.1531555E2,1.1916806E2,1.707077E2,3.7203712E1,1.7782974E2,2.0652267E2,1.8783904E2,1.2732883E2,4.984725E1,1.5641733E2,1.4669951E2,1.9355118E2,9.980674E1,1.8780338E2,9.28465E1,3.073659E2,3.913246E2,1.0019652E2,4.325871E2,2.0031036E2,4.630373E2,4.572711E2,1.1389548E2,1.1596808E2,3.9776886E2,4.5581577E2,1.4538615E2,3.307563E2,1.23048546E2,8.161281E1,1.682821E2,1.7030411E2,1.7920543E2,9.811345E1,1.5616113E2,3.73082E2,2.7669067E2,4.16439E1,1.0048348E2,9.735989E1,3.8839734E2,2.0839635E2,1.0860525E2,1.7651859E2,9.920183E1,4.683363E2,2.0081102E2,4.12576E1,2.1603339E2,4.6664703E2,1.8736453E2,1.6634087E2,4.100988E2,1.958057E2,3.2593852E-1,1.1923971E2,4.0424957E2,1.7375017E2,-4.9797047E-2,4.0685183E-1,-2.896629E-1,1.3582249E-1,-8.867044E-3,4.223277E-1,9.954608E-2,-3.944661E-1,-1.8683815E-1,-3.3328497E-1,-2.3798363E-1,-1.2533148E-1,-1.716172E-1,-2.5997737E-1,1.5415536E-1,-1.8585263E-1,7.305699E-3,-2.6640585E-1,-2.2172565E-2,1.8273152E-1,-4.6256486E-1,1.9474645E-1,-3.2153628E-3,-2.0900668E-1,-3.0514702E-1,-1.7001545E-1,8.989007E-2,-2.2083461E-1,-3.2095855E-1,5.5454904E-1,4.0236345E-1,-1.3036995E-1,-2.7145982E-1,-1.714842E-1,-3.1823176E-1,-2.7719516E-1,-1.516381E-1,-2.5392514E-1,-2.0151089E-1,-7.0214854E-3,-1.5202124E-1,2.0120291E-1,-3.0166498E-1,-1.6636547E-1,-1.7264937E-1,3.4680814E-1,1.6983859E-1,-5.4485805E-2,-2.219889E-1,-1.3539861E-1,-1.6614708E-1,-3.3790257E-2,-2.48214E-1,-8.3665244E-2,-4.25805E-1,9.414185E-2,8.025384E-2,-3.9256886E-1,-2.6362643E-1,9.826089E-2,4.239257E-2,-2.4287997E-1],"split_indices":[1,3,3,1,1,2,2,0,3,0,0,0,2,3,0,0,0,2,0,2,1,1,2,1,0,1,1,2,2,1,1,0,1,2,2,0,0,0,2,0,1,1,3,2,2,1,0,2,0,2,1,0,3,0,1,0,0,1,0,0,2,1,0,0,0,0,0,0,0,0,0,0,0,0,0,0,0,0,0,0,0,0,0,0,0,0,0,0,0,0,0,0,0,0,0,0,0,0,0,0,0,0,0,0,0,0,0,0,0,0,0,0,0,0,0,0,0,0,0,0,0,0,0,0,0],"split_type":[0,0,0,0,0,0,0,0,0,0,0,0,0,0,0,0,0,0,0,0,0,0,0,0,0,0,0,0,0,0,0,0,0,0,0,0,0,0,0,0,0,0,0,0,0,0,0,0,0,0,0,0,0,0,0,0,0,0,0,0,0,0,0,0,0,0,0,0,0,0,0,0,0,0,0,0,0,0,0,0,0,0,0,0,0,0,0,0,0,0,0,0,0,0,0,0,0,0,0,0,0,0,0,0,0,0,0,0,0,0,0,0,0,0,0,0,0,0,0,0,0,0,0,0,0],"sum_hessian":[1.1919873E5,2.6511648E4,9.268707E4,1.2415824E4,1.4095825E4,7.037942E4,2.2307654E4,1.7724009E3,1.0643423E4,8.76222E3,5.3336055E3,6.153805E4,8.841369E3,2.039186E4,1.9157949E3,7.071377E2,1.0652632E3,5.094298E3,5.549125E3,6.2485347E3,2.5136853E3,5.1521055E3,1.8149979E2,5.053412E4,1.100393E4,6.3111787E3,2.5301902E3,1.4320988E4,6.0708706E3,1.5955492E2,1.75624E3,1.3582996E2,5.7130774E2,9.737186E2,9.154458E1,2.2891697E3,2.805128E3,4.6237026E3,9.254227E2,1.1254054E3,5.1231294E3,2.9817264E2,2.2155127E3,3.203271E3,1.9488345E3,1.1542112E2,6.6078674E1,1.3689992E4,3.684413E4,7.7278013E3,3.2761284E3,3.6933384E3,2.6178403E3,1.0021622E3,1.528028E3,1.3132816E4,1.1881719E3,5.9130225E3,1.5784837E2,1.6270463E0,1.5792787E2,9.7533356E2,7.8090643E2,1.0334367E2,3.248628E1,5.187099E2,5.259782E1,9.220723E2,5.16463E1,4.6445127E0,8.690007E1,1.0645161E3,1.2246537E3,1.2871849E3,1.5179431E3,3.8730493E3,7.506532E2,4.5881827E2,4.6660446E2,3.6027658E2,7.651288E2,4.5707065E3,5.5242316E2,4.1961426E1,2.562112E2,4.247562E2,1.7907565E3,1.4604374E3,1.7428336E3,8.1564813E2,1.1331863E3,1.5499035E1,9.992208E1,2.4703846E1,4.137483E1,1.1650113E4,2.0398787E3,2.7024586E4,9.819543E3,4.0939338E3,3.6338674E3,1.8760303E3,1.400098E3,3.4518518E3,2.4148654E2,1.8266663E3,7.91174E2,9.7937524E2,2.2786928E1,4.373088E2,1.0907191E3,1.0895675E4,2.237142E3,4.1508636E2,7.7308545E2,4.7402927E2,5.438993E3,1.4383134E2,1.4017022E1,1.1310384E0,1.5679683E2,6.2643845E1,9.1268976E2,4.3366055E2,3.4724588E2],"tree_param":{"num_deleted":"0","num_feature":"4","num_nodes":"125","size_leaf_vector":"0"}},{"base_weights":[-5.849933E-1,-4.1033137E-1,-6.884212E-1,-4.555105E-1,-1.1034643E-1,-7.691764E-1,-4.302497E-1,-2.6261193E-1,-5.208607E-1,-9.782248E-1,-4.3472957E-2,-8.1253904E-1,-1.2269657E-1,-5.958728E-1,-3.2551348E-1,-5.836989E-1,-2.040776E-1,-9.537452E-1,-4.946162E-1,-1.1720388E0,5.421393E-1,1.2547469E-1,-4.414109E-1,-9.139097E-1,-5.340366E-1,-7.364312E-2,-9.3282616E-1,-5.5164844E-1,-1.2690525E0,-1.1163691E0,-2.8796598E-1,-2.9765043E-1,-8.2283235E-1,2.4284426E-2,-3.2215786E-1,5.515432E-1,-9.854197E-1,-5.200449E-1,-5.24029E-3,-1.2422223E0,-6.8679637E-1,2.4701965E0,-9.231758E-1,2.4143872E-1,-4.2730156E-1,-7.217957E-1,3.6260614E-1,-1.0166659E0,-8.5244083E-1,-5.639971E-1,-6.7733848E-3,-6.534419E-1,1.3444867E-2,1.4990456E-1,-1.1087077E0,-6.4578205E-1,4.230351E-2,-1.3206086E0,7.988487E-1,-1.1419815E0,5.796155E-3,-3.2759938E-1,1.8506186E-1,-1.1425091E0,-1.1078112E-1,-8.8468724E-1,1.3099672E-1,7.453837E-1,-6.454846E-2,-4.0801606E-1,4.0586546E-2,1.4250642E0,-1.1383128E0,-1.0335091E0,-5.384747E-1,-5.345434E-1,1.1771241E-1,-2.9631612E-1,8.558304E-1,-1.394898E0,-1.1970403E0,1.0731463E0,-9.3212813E-1,-9.8899734E-1,3.216367E0,1.5448445E-1,-1.2313784E0,1.2355016E-1,7.830133E-1,-6.7645645E-1,9.362986E-1,5.6899154E-1,-7.8625876E-1,9.7589093E-1,-8.1892796E-2,-1.0721616E0,-8.718474E-1,-9.1889906E-1,-7.733188E-1,-7.074959E-1,-4.2946205E-1,9.2299247E-1,-4.2663407E-1,-1.9036672E-1,-1.3162053E0,-5.2137506E-1,8.7338485E-2,9.3653363E-1,-1.1096627E0,-7.682587E-1,-1.1928084E0,-7.794762E-1,-3.2926902E-1,-8.046529E-1,2.2419207E-1,1.5494017E-1,-1.3399802E0,1.5158672E0,-1.0541842E0,-1.1634997E0,-4.3396765E-1,-1.0079007E0,1.3991014E0,-1.2599786E-1,-4.5357272E-1,2.933139E-1,-1.4142106E0],"categories":[],"categories_nodes":[],"categories_segments":[],"categories_sizes":[],"default_left":[1,1,1,1,1,1,1,1,1,1,1,1,1,1,1,1,1,1,1,1,1,1,1,1,1,1,1,1,1,1,1,1,1,1,1,1,1,1,1,1,1,1,1,1,1,1,1,1,1,1,1,1,1,1,1,1,1,1,1,1,1,1,1,0,0,0,0,0,0,0,0,0,0,0,0,0,0,0,0,0,0,0,0,0,0,0,0,0,0,0,0,0,0,0,0,0,0,0,0,0,0,0,0,0,0,0,0,0,0,0,0,0,0,0,0,0,0,0,0,0,0,0,0,0,0,0,0],"id":5,"left_children":[1,3,5,7,9,11,13,15,17,19,21,23,25,27,29,31,33,35,37,39,41,43,45,47,49,51,53,55,57,59,61,63,65,67,69,71,73,75,77,79,81,83,85,87,89,91,93,95,97,99,101,103,105,107,109,111,113,115,117,119,121,123,125,-1,-1,-1,-1,-1,-1,-1,-1,-1,-1,-1,-1,-1,-1,-1,-1,-1,-1,-1,-1,-1,-1,-1,-1,-1,-1,-1,-1,-1,-1,-1,-1,-1,-1,-1,-1,-1,-1,-1,-1,-1,-1,-1,-1,-1,-1,-1,-1,-1,-1,-1,-1,-1,-1,-1,-1,-1,-1,-1,-1,-1,-1,-1,-1],"loss_changes":[1.8755547E3,5.2340186E2,1.3593633E3,4.230039E2,2.934372E2,1.3924961E3,2.6939917E2,1.5956232E2,2.8436182E2,1.0722131E2,3.1576822E2,1.3138223E3,1.2407008E2,1.7850562E2,2.824583E2,8.932919E1,1.9382275E2,6.8822754E1,2.9418604E2,1.0083405E1,1.1975604E2,2.1146173E2,3.1581284E2,2.1470508E2,1.9628369E2,1.4878992E2,3.411302E1,3.1593408E2,4.0533936E1,1.2402222E1,1.7052673E2,9.425668E1,4.2162598E1,1.5703598E2,1.4757642E2,4.6132633E1,2.9596436E1,2.0785889E2,2.9318146E2,2.5704956E-1,1.948654E1,5.0228867E1,8.279003E0,1.7395198E2,1.9500986E2,8.683087E1,9.8922745E1,1.0168945E2,1.1161426E2,2.2668042E2,2.6159253E2,1.1784981E2,1.0132422E2,2.659391E1,3.4777832E0,2.0612952E2,1.194029E2,1.0545532E1,1.4393965E1,5.9191284E0,1.6408115E1,2.1302051E2,1.2222234E2,0E0,0E0,0E0,0E0,0E0,0E0,0E0,0E0,0E0,0E0,0E0,0E0,0E0,0E0,0E0,0E0,0E0,0E0,0E0,0E0,0E0,0E0,0E0,0E0,0E0,0E0,0E0,0E0,0E0,0E0,0E0,0E0,0E0,0E0,0E0,0E0,0E0,0E0,0E0,0E0,0E0,0E0,0E0,0E0,0E0,0E0,0E0,0E0,0E0,0E0,0E0,0E0,0E0,0E0,0E0,0E0,0E0,0E0,0E0,0E0,0E0,0E0,0E0,0E0],"parents":[2147483647,0,0,1,1,2,2,3,3,4,4,5,5,6,6,7,7,8,8,9,9,10,10,11,11,12,12,13,13,14,14,15,15,16,16,17,17,18,18,19,19,20,20,21,21,22,22,23,23,24,24,25,25,26,26,27,27,28,28,29,29,30,30,31,31,32,32,33,33,34,34,35,35,36,36,37,37,38,38,39,39,40,40,41,41,42,42,43,43,44,44,45,45,46,46,47,47,48,48,49,49,50,50,51,51,52,52,53,53,54,54,55,55,56,56,57,57,58,58,59,59,60,60,61,61,62,62],"right_children":[2,4,6,8,10,12,14,16,18,20,22,24,26,28,30,32,34,36,38,40,42,44,46,48,50,52,54,56,58,60,62,64,66,68,70,72,74,76,78,80,82,84,86,88,90,92,94,96,98,100,102,104,106,108,110,112,114,116,118,120,122,124,126,-1,-1,-1,-1,-1,-1,-1,-1,-1,-1,-1,-1,-1,-1,-1,-1,-1,-1,-1,-1,-1,-1,-1,-1,-1,-1,-1,-1,-1,-1,-1,-1,-1,-1,-1,-1,-1,-1,-1,-1,-1,-1,-1,-1,-1,-1,-1,-1,-1,-1,-1,-1,-1,-1,-1,-1,-1,-1,-1,-1,-1,-1,-1,-1],"split_conditions":[4.2106836E2,4.7316196E1,4.5194813E1,3.6059515E2,8.8294266E1,1.2379904E2,1.6787733E2,3.6080368E1,8.546823E1,1.9295659E2,1.06958374E2,1.8328555E2,5.213161E2,5.4591057E1,8.4724945E1,3.326437E2,1.6173642E2,3.6193182E2,2.0131107E2,8.759007E1,1.9485223E2,1.8341449E2,1.21722565E2,3.7733074E1,1.17153336E2,1.5597186E2,1.5225662E2,5.187184E1,1.3450568E2,5.7114246E1,5.357031E2,3.0481793E2,3.5968835E2,2.845504E2,1.8933415E2,1.6671512E2,4.174829E2,1.3078165E2,4.1453528E2,3.5116544E2,4.760343E1,4.0388773E2,1.9639162E2,1.7801474E2,4.1562662E2,2.9782947E2,3.695542E2,1.7401997E2,1.0156134E2,1.9184789E2,1.8684047E2,3.897802E1,3.4266838E1,1.2964218E2,1.6239967E2,1.0786688E2,4.409905E2,4.2216425E2,1.3698032E2,5.609082E2,8.338463E1,1.7657605E2,5.370108E1,-3.4275275E-1,-3.3234335E-2,-2.654062E-1,3.929902E-2,2.2361511E-1,-1.936454E-2,-1.2240482E-1,1.2175964E-2,4.275193E-1,-3.4149384E-1,-3.1005275E-1,-1.6154242E-1,-1.6036302E-1,3.5313725E-2,-8.889484E-2,2.5674912E-1,-4.1846943E-1,-3.591121E-1,3.219439E-1,-2.7963844E-1,-2.9669923E-1,9.6491015E-1,4.634534E-2,-3.6941355E-1,3.706505E-2,2.3490399E-1,-2.0293695E-1,2.808896E-1,1.7069747E-1,-2.3587763E-1,2.927673E-1,-2.456784E-2,-3.2164848E-1,-2.6155424E-1,-2.7566972E-1,-2.3199566E-1,-2.1224879E-1,-1.2883861E-1,2.7689776E-1,-1.2799023E-1,-5.7110015E-2,-3.948616E-1,-1.5641253E-1,2.6201546E-2,2.809601E-1,-3.328988E-1,-2.3047762E-1,-3.5784253E-1,-2.3384288E-1,-9.8780714E-2,-2.4139589E-1,6.725762E-2,4.6482053E-2,-4.0199408E-1,4.547602E-1,-3.1625527E-1,-3.4904993E-1,-1.301903E-1,-3.0237022E-1,4.1973042E-1,-3.779936E-2,-1.3607182E-1,8.799417E-2,-4.2426318E-1],"split_indices":[1,3,3,1,2,2,0,3,2,0,2,0,1,3,2,1,0,1,0,2,0,0,2,3,2,0,0,3,2,3,1,1,1,1,0,0,1,2,1,1,3,1,0,0,1,1,1,0,2,0,0,3,3,2,0,2,1,1,2,1,2,0,3,0,0,0,0,0,0,0,0,0,0,0,0,0,0,0,0,0,0,0,0,0,0,0,0,0,0,0,0,0,0,0,0,0,0,0,0,0,0,0,0,0,0,0,0,0,0,0,0,0,0,0,0,0,0,0,0,0,0,0,0,0,0,0,0],"split_type":[0,0,0,0,0,0,0,0,0,0,0,0,0,0,0,0,0,0,0,0,0,0,0,0,0,0,0,0,0,0,0,0,0,0,0,0,0,0,0,0,0,0,0,0,0,0,0,0,0,0,0,0,0,0,0,0,0,0,0,0,0,0,0,0,0,0,0,0,0,0,0,0,0,0,0,0,0,0,0,0,0,0,0,0,0,0,0,0,0,0,0,0,0,0,0,0,0,0,0,0,0,0,0,0,0,0,0,0,0,0,0,0,0,0,0,0,0,0,0,0,0,0,0,0,0,0,0],"sum_hessian":[1.0383768E5,3.862144E4,6.521624E4,3.356576E4,5.055679E3,4.967583E4,1.5540411E4,8.495128E3,2.5070635E4,3.6071545E2,4.6949634E3,4.6553023E4,3.1228015E3,6.0184824E3,9.521928E3,1.3084917E3,7.186636E3,1.4310522E3,2.3639582E4,3.2013428E2,4.0581177E1,3.2962146E3,1.3987488E3,3.4128496E4,1.242453E4,2.9455396E3,1.772619E2,5.6491807E3,3.6930212E2,4.3028036E2,9.091647E3,5.9682336E2,7.116684E2,2.4497402E3,4.736896E3,2.9153593E1,1.4018986E3,2.2471848E4,1.1677341E3,2.783193E2,4.1815E1,1.7227503E1,2.3353674E1,2.7250947E3,5.7112006E2,1.0371617E3,3.6158704E2,1.2768346E4,2.136015E4,1.1756428E4,6.68102E2,3.8380542E2,2.5617341E3,2.4791643E1,1.5247026E2,4.876268E3,7.7291235E2,3.606714E2,8.6307335E0,4.206615E2,9.618858E0,8.389064E3,7.025836E2,1.0717197E2,4.896514E2,6.6839606E2,4.327234E1,2.678755E2,2.1818647E3,3.830199E3,9.066971E2,1.9322231E1,9.831361E0,1.2645281E3,1.3737054E2,2.1972496E4,4.9935107E2,8.7321045E2,2.9452368E2,5.673424E1,2.2158505E2,4.702964E0,3.7112034E1,2.998986E0,1.4228518E1,5.304553E0,1.8049122E1,2.2389531E3,4.8614142E2,4.8331366E2,8.7806404E1,4.8960796E1,9.88201E2,1.5144273E2,2.101443E2,9.226341E3,3.5420051E3,1.1603347E4,9.756803E3,5.68664E3,6.0697876E3,2.0746971E2,4.6063226E2,2.2669795E2,1.5710747E2,3.102417E2,2.2514924E3,1.5418743E1,9.3729E0,3.2211124E1,1.2025913E2,3.4271763E3,1.4490918E3,1.3603716E2,6.368752E2,4.58299E0,3.5608838E2,6.354036E0,2.2766976E0,4.0762936E2,1.3032128E1,5.7280426E0,3.890816E0,3.2268972E3,5.162167E3,6.588067E2,4.3776905E1],"tree_param":{"num_deleted":"0","num_feature":"4","num_nodes":"127","size_leaf_vector":"0"}},{"base_weights":[-4.7945416E-1,-2.502591E-1,-5.542807E-1,-4.402012E-1,-1.9991633E-1,-6.4249265E-1,-3.212582E-1,-7.796748E-1,-3.620248E-1,-6.259463E-1,-1.7449458E-1,-7.323102E-1,-3.9598936E-1,-8.8968146E-1,-2.9778174E-1,-3.369495E-1,-1.0641607E0,-3.1153318E-1,-1.097792E0,4.4711354E-1,-7.808875E-1,-1.0237767E-1,-3.2153273E-1,-8.0700314E-1,-3.271012E-1,-4.8870367E-1,-1.6728361E-1,-1.0202618E0,9.841947E-2,-3.5546932E-1,-8.334914E-2,-9.478839E-1,3.139241E-1,-1.0729979E0,-2.8381833E-1,-3.5696375E-1,1.9345057E-1,-1.1792954E0,-8.7108994E-1,7.868128E-1,-1.2417289E0,-3.6030028E-3,-9.58716E-1,-1.9305807E-2,-3.1400236E-1,-4.9195153E-1,9.505029E-2,-6.519678E-1,-8.721779E-1,-5.1144123E-1,-1.2562914E-1,-2.5543967E-1,-6.04622E-1,-1.0800466E-1,-9.6729136E-1,-7.3172885E-1,-1.1193132E0,1.6254674E0,-9.3827146E-1,-4.2484424E-1,-2.5165448E-2,6.0492013E-2,-3.145893E-1,-9.830348E-2,-1.0824926E0,-1.1707724E0,7.285468E-1,-8.72318E-1,-1.0890088E0,4.492017E-1,-6.376162E-1,-4.815444E-1,-1.2924744E-1,7.027505E-1,-1.0848473E0,-3.4303033E-1,-1.1003476E0,-8.732531E-1,1.1389782E0,-3.470802E-1,-1.3435504E0,-2.433808E-1,1.2253116E0,-5.056757E-1,-1.0790514E0,-9.490314E-2,4.0344957E-1,-5.2814996E-1,7.318039E-2,-5.9068125E-1,-7.7025704E-2,9.746932E-1,-2.03074E-1,-9.071493E-1,-5.617292E-1,-9.8605555E-1,-8.0361617E-1,-3.3311936E-1,-7.291854E-1,-5.5452794E-1,-1.12371445E-2,-6.0623987E-3,-6.587983E-1,-6.191101E-1,1.5801365E0,-2.206628E-1,1.7154504E0,-7.333506E-1,-1.2823927E0,2.9439887E-1,-9.966326E-1,-1.1374661E0,-3.8427883E-1,3.053148E0,-1.1084038E0,-1.1196489E0,-2.4385016E-2,-4.9211714E-1,-1.4786398E-1,-4.9503872E-1,1.0875317E-1,-3.696887E-1,2.276123E-1,1.413031E-1,-6.713343E-1],"categories":[],"categories_nodes":[],"categories_segments":[],"categories_sizes":[],"default_left":[1,1,1,1,1,1,1,1,1,1,1,1,1,1,1,1,1,1,1,1,1,1,1,1,1,1,1,1,1,1,1,1,1,1,1,1,1,0,1,1,1,1,1,1,1,1,1,1,1,1,1,1,1,1,1,1,1,1,1,1,1,1,1,0,0,0,0,0,0,0,0,0,0,0,0,0,0,0,0,0,0,0,0,0,0,0,0,0,0,0,0,0,0,0,0,0,0,0,0,0,0,0,0,0,0,0,0,0,0,0,0,0,0,0,0,0,0,0,0,0,0,0,0,0,0],"id":6,"left_children":[1,3,5,7,9,11,13,15,17,19,21,23,25,27,29,31,33,35,37,39,41,43,45,47,49,51,53,55,57,59,61,63,65,67,69,71,73,-1,75,77,79,81,83,85,87,89,91,93,95,97,99,101,103,105,107,109,111,113,115,117,119,121,123,-1,-1,-1,-1,-1,-1,-1,-1,-1,-1,-1,-1,-1,-1,-1,-1,-1,-1,-1,-1,-1,-1,-1,-1,-1,-1,-1,-1,-1,-1,-1,-1,-1,-1,-1,-1,-1,-1,-1,-1,-1,-1,-1,-1,-1,-1,-1,-1,-1,-1,-1,-1,-1,-1,-1,-1,-1,-1,-1,-1,-1,-1],"loss_changes":[1.5745762E3,2.1602734E2,1.4226523E3,1.2536218E2,1.9340466E2,1.1114062E3,2.5341785E2,1.1114661E2,1.4268762E2,1.6756775E2,1.7877979E2,1.1135645E3,2.843025E2,9.7321655E1,2.2582031E2,1.3859758E2,3.4090576E0,8.2755585E1,3.533661E0,7.414422E1,1.21525696E2,1.9891748E2,3.9395868E2,3.1339844E2,2.1272412E2,2.578706E2,1.8343127E2,1.8204346E1,1.4220602E2,3.296626E2,1.2880287E2,2.0438934E1,1.0497823E2,7.5982666E-1,2.202947E0,9.375604E1,1.9485954E2,0E0,7.9882965E0,6.3426537E1,1.514534E0,4.8830544E1,3.846216E1,2.597609E2,2.6450177E2,1.6127094E2,4.228547E2,2.1134937E2,1.6998633E2,1.1591699E2,1.3436864E2,3.1881738E2,2.0273242E2,7.407938E2,1.8731186E1,4.7318375E1,6.149414E0,1.4506732E2,8.851589E0,2.2146973E2,1.572585E2,1.717506E2,2.4160765E2,0E0,0E0,0E0,0E0,0E0,0E0,0E0,0E0,0E0,0E0,0E0,0E0,0E0,0E0,0E0,0E0,0E0,0E0,0E0,0E0,0E0,0E0,0E0,0E0,0E0,0E0,0E0,0E0,0E0,0E0,0E0,0E0,0E0,0E0,0E0,0E0,0E0,0E0,0E0,0E0,0E0,0E0,0E0,0E0,0E0,0E0,0E0,0E0,0E0,0E0,0E0,0E0,0E0,0E0,0E0,0E0,0E0,0E0,0E0,0E0,0E0,0E0],"parents":[2147483647,0,0,1,1,2,2,3,3,4,4,5,5,6,6,7,7,8,8,9,9,10,10,11,11,12,12,13,13,14,14,15,15,16,16,17,17,18,18,19,19,20,20,21,21,22,22,23,23,24,24,25,25,26,26,27,27,28,28,29,29,30,30,31,31,32,32,33,33,34,34,35,35,36,36,38,38,39,39,40,40,41,41,42,42,43,43,44,44,45,45,46,46,47,47,48,48,49,49,50,50,51,51,52,52,53,53,54,54,55,55,56,56,57,57,58,58,59,59,60,60,61,61,62,62],"right_children":[2,4,6,8,10,12,14,16,18,20,22,24,26,28,30,32,34,36,38,40,42,44,46,48,50,52,54,56,58,60,62,64,66,68,70,72,74,-1,76,78,80,82,84,86,88,90,92,94,96,98,100,102,104,106,108,110,112,114,116,118,120,122,124,-1,-1,-1,-1,-1,-1,-1,-1,-1,-1,-1,-1,-1,-1,-1,-1,-1,-1,-1,-1,-1,-1,-1,-1,-1,-1,-1,-1,-1,-1,-1,-1,-1,-1,-1,-1,-1,-1,-1,-1,-1,-1,-1,-1,-1,-1,-1,-1,-1,-1,-1,-1,-1,-1,-1,-1,-1,-1,-1,-1,-1,-1],"split_conditions":[3.9619397E2,3.7281563E1,4.479326E1,1.5898376E2,8.640547E1,1.8397157E2,8.460523E1,1.4912657E2,1.9527116E2,3.1497638E2,3.7925345E2,1.1531724E2,1.9892426E2,5.213485E2,5.1364967E1,1.4467313E2,3.7231224E1,1.17724396E2,1.07835205E2,4.526825E1,3.8675354E1,1.06835266E2,1.8105573E2,4.325871E2,1.2380357E2,9.528139E1,5.221326E2,4.5942726E1,5.326276E2,1.1506882E2,4.6696747E2,3.2303564E2,9.472945E1,8.6181206E1,1.5197974E2,3.817077E2,1.7755717E2,-3.5378864E-1,1.9793338E2,3.97452E1,4.5662502E1,1.9330319E2,1.5606348E2,3.729334E2,1.1691543E2,4.6854534E1,9.3803185E1,1.5887276E2,3.772737E1,4.5634265E2,4.3651007E2,4.6733392E2,5.807999E2,5.132064E2,5.411548E2,4.2213635E2,5.7317886E1,1.6936035E2,8.407315E1,1.8645984E2,1.6438129E2,9.702344E1,9.8468124E1,-2.9491046E-2,-3.247478E-1,-3.5123175E-1,2.1856405E-1,-2.616954E-1,-3.2670265E-1,1.3476051E-1,-1.9128488E-1,-1.4446333E-1,-3.8774233E-2,2.1082516E-1,-3.254542E-1,-1.029091E-1,-3.301043E-1,-2.6197594E-1,3.416935E-1,-1.0412406E-1,-4.0306515E-1,-7.3014244E-2,3.675935E-1,-1.517027E-1,-3.2371542E-1,-2.8470943E-2,1.21034876E-1,-1.58445E-1,2.195412E-2,-1.7720439E-1,-2.3107711E-2,2.9240796E-1,-6.09222E-2,-2.721448E-1,-1.6851877E-1,-2.958167E-1,-2.4108486E-1,-9.9935815E-2,-2.1875563E-1,-1.6635838E-1,-3.3711435E-3,-1.8187197E-3,-1.976395E-1,-1.8573304E-1,4.74041E-1,-6.619884E-2,5.1463515E-1,-2.2000518E-1,-3.8471785E-1,8.831967E-2,-2.9898977E-1,-3.4123984E-1,-1.1528365E-1,9.1594446E-1,-3.3252114E-1,-3.358947E-1,-7.3155053E-3,-1.4763515E-1,-4.4359196E-2,-1.4851162E-1,3.262595E-2,-1.1090661E-1,6.828369E-2,4.2390935E-2,-2.0140031E-1],"split_indices":[1,3,3,0,2,0,2,0,0,1,1,2,0,1,3,0,3,2,2,3,3,2,0,1,2,2,1,3,1,2,1,1,2,2,0,1,0,0,0,3,3,0,0,1,2,3,2,0,3,1,1,1,1,1,1,1,3,0,2,0,0,2,2,0,0,0,0,0,0,0,0,0,0,0,0,0,0,0,0,0,0,0,0,0,0,0,0,0,0,0,0,0,0,0,0,0,0,0,0,0,0,0,0,0,0,0,0,0,0,0,0,0,0,0,0,0,0,0,0,0,0,0,0,0,0],"split_type":[0,0,0,0,0,0,0,0,0,0,0,0,0,0,0,0,0,0,0,0,0,0,0,0,0,0,0,0,0,0,0,0,0,0,0,0,0,0,0,0,0,0,0,0,0,0,0,0,0,0,0,0,0,0,0,0,0,0,0,0,0,0,0,0,0,0,0,0,0,0,0,0,0,0,0,0,0,0,0,0,0,0,0,0,0,0,0,0,0,0,0,0,0,0,0,0,0,0,0,0,0,0,0,0,0,0,0,0,0,0,0,0,0,0,0,0,0,0,0,0,0,0,0,0,0],"sum_hessian":[9.181976E4,2.2599977E4,6.921978E4,4.733365E3,1.7866613E4,5.021055E4,1.9009229E4,8.843189E2,3.8490461E3,1.00475867E3,1.6861854E4,3.679992E4,1.3410631E4,7.524969E2,1.8256732E4,3.4680115E2,5.3751776E2,3.6032017E3,2.458445E2,1.26536E2,8.782227E2,1.1314296E4,5.547558E3,3.1071463E4,5.728458E3,9.541497E3,3.8691338E3,6.6463135E2,8.7865486E1,1.4385914E4,3.8708184E3,1.7865372E2,1.6814743E2,5.311278E2,6.389996E0,3.3060664E3,2.9713538E2,1.7774138E2,6.810313E1,1.0579098E2,2.074503E1,1.6370259E2,7.145201E2,8.125698E3,3.1885972E3,3.9368586E3,1.6106996E3,9.199359E3,2.1872104E4,2.990612E3,2.737846E3,3.1685618E3,6.3729355E3,3.6032737E3,2.6586026E2,1.7199722E2,4.9263416E2,3.530023E1,5.2565254E1,1.1888619E4,2.4972952E3,2.3868408E3,1.4839775E3,2.4671318E1,1.539824E2,3.6308582E1,1.3183884E2,4.334348E1,4.877843E2,1.9923884E0,4.397608E0,2.1362417E3,1.1698247E3,2.1280125E2,8.4334114E1,2.137209E1,4.6731033E1,1.8255774E1,8.75352E1,2.5702643E0,1.8174765E1,1.3764764E2,2.6054955E1,1.5104941E2,5.634707E2,6.893733E3,1.2319653E3,2.0528298E3,1.1357673E3,3.1798127E3,7.570459E2,4.0713657E2,1.203563E3,2.4009043E3,6.7984546E3,8.214628E3,1.3657476E4,1.6455319E3,1.3450802E3,5.7565405E2,2.162192E3,1.9586422E3,1.2099194E3,6.331664E3,4.1271404E1,3.394435E3,2.0883865E2,1.5448976E2,1.1137049E2,3.526886E1,1.3672836E2,4.8022668E2,1.2407463E1,2.3113255E1,1.2186975E1,4.3672497E1,8.892758E0,9.564756E3,2.3238628E3,5.5329193E2,1.9440032E3,6.6748083E2,1.71936E3,6.517262E2,8.322514E2],"tree_param":{"num_deleted":"0","num_feature":"4","num_nodes":"125","size_leaf_vector":"0"}},{"base_weights":[-3.870774E-1,-2.4331139E-1,-4.8439655E-1,-1.02080844E-1,-3.0558905E-1,-5.690734E-1,-2.569011E-1,-2.719209E-1,-3.2365445E-2,-8.6270815E-1,-2.7907073E-1,-6.4426863E-1,-1.8106924E-1,-3.318649E-1,-7.383803E-2,1.828067E-2,-4.0472746E-1,4.469964E-2,-2.852119E-1,-5.066233E-1,-9.842281E-1,-8.312567E-1,-2.599138E-1,-7.457444E-1,-3.1379402E-1,-1.3471265E-1,-8.3970916E-1,-7.161472E-1,-2.728249E-1,-2.4580881E-1,2.5667223E-1,-3.6005792E-1,5.1845133E-1,-7.775645E-1,-2.2139879E-1,-2.178877E-1,1.5867195E-1,2.3676547E-1,-3.9214703E-1,-1.0954217E0,7.238588E-1,-1.0861764E0,-4.1133708E-1,-9.37785E-1,-1.4619957E-1,-2.810472E-1,1.8254684E-1,-8.363476E-1,-6.2575835E-1,-6.751922E-1,-2.2841626E-1,-3.202135E-1,5.1891E-2,-2.3668258E-1,-1.0059801E0,-8.2123125E-1,9.657877E-1,-5.507101E-1,-1.9616593E-1,1.0016847E-1,-5.413572E-1,-9.0308297E-1,3.7553504E-1,2.8685153E-1,-1.188379E0,1.3060739E0,-6.682789E-1,-1.436052E-1,-1.0494692E0,-5.989839E-1,1.2026187E-1,2.8596774E-1,-4.4161165E-1,9.1249965E-2,9.349173E-1,4.525879E-1,-1.4044104E0,-7.5189E-2,-7.1181804E-1,-1.1007239E0,-3.370945E-1,1.3776196E0,-1.0306001E0,-1.0940778E0,-5.238816E-1,-1.0758507E0,8.823002E-1,-8.255261E-1,-1.1828625E0,-1.0849502E0,1.1787562E0,-3.4333372E-1,-1.7398681E-1,-1.3488375E0,2.799174E-1,-9.757292E-1,-7.19665E-1,-3.250243E-1,-6.715845E-1,-1.3632669E-1,-8.027383E-1,-1.6215913E-1,-7.659018E-1,-7.3663E-1,-1.3045253E-1,3.52501E-1,-1.4319198E-1,5.2878493E-1,-6.082637E-1,-1.0816917E0,-1.7904595E-1,8.8200176E-1,-8.73887E-1,-1.1821516E0,2.0765498E0,-7.778258E-1,-1.0144776E-1,-5.2882354E-3,-3.9502168E-1,-1.5654387E-1,1.7801492E0,-7.4385625E-1,5.879269E-2,-1.1847999E0,9.744504E-1,4.4594288E-1,-1.3316834E0],"categories":[],"categories_nodes":[],"categories_segments":[],"categories_sizes":[],"default_left":[1,1,1,1,1,1,1,1,1,1,1,1,1,1,1,1,1,1,1,1,1,1,1,1,1,1,1,1,1,1,1,1,1,1,1,1,1,1,1,1,1,1,1,1,1,1,1,1,1,1,1,1,1,1,1,1,1,1,1,1,1,1,1,0,0,0,0,0,0,0,0,0,0,0,0,0,0,0,0,0,0,0,0,0,0,0,0,0,0,0,0,0,0,0,0,0,0,0,0,0,0,0,0,0,0,0,0,0,0,0,0,0,0,0,0,0,0,0,0,0,0,0,0,0,0,0,0],"id":7,"left_children":[1,3,5,7,9,11,13,15,17,19,21,23,25,27,29,31,33,35,37,39,41,43,45,47,49,51,53,55,57,59,61,63,65,67,69,71,73,75,77,79,81,83,85,87,89,91,93,95,97,99,101,103,105,107,109,111,113,115,117,119,121,123,125,-1,-1,-1,-1,-1,-1,-1,-1,-1,-1,-1,-1,-1,-1,-1,-1,-1,-1,-1,-1,-1,-1,-1,-1,-1,-1,-1,-1,-1,-1,-1,-1,-1,-1,-1,-1,-1,-1,-1,-1,-1,-1,-1,-1,-1,-1,-1,-1,-1,-1,-1,-1,-1,-1,-1,-1,-1,-1,-1,-1,-1,-1,-1,-1],"loss_changes":[1.154998E3,2.931162E2,9.482412E2,1.20774895E2,3.414685E2,1.0466318E3,1.8326172E2,1.1441675E2,1.4095985E2,4.4955017E1,2.3334888E2,1.00757715E3,1.777565E2,2.1478381E2,2.2068446E2,1.7673256E2,1.3903198E2,1.6597104E2,9.441391E1,1.9592297E2,4.5232117E1,5.3857513E1,1.9960449E2,2.4942188E2,2.1773926E2,1.8845287E2,3.8150574E1,2.2371924E2,1.7489471E2,2.6117194E2,1.8353476E2,2.8528198E2,3.7680197E2,1.15500275E2,1.7637993E2,1.8934396E2,2.0229779E2,1.02626175E2,1.4208759E2,3.6299133E-1,1.0208998E2,2.3740234E0,1.0390155E2,1.6634644E1,1.2659712E2,1.3576624E2,1.4553137E2,2.122959E2,1.3616089E2,9.2605896E1,2.0335693E2,2.1563397E2,1.5924933E2,2.4230652E1,1.8577026E1,1.0728607E2,1.8050737E2,1.8110547E2,2.4445885E2,5.0801373E2,1.6743225E2,6.665431E1,1.4556877E2,0E0,0E0,0E0,0E0,0E0,0E0,0E0,0E0,0E0,0E0,0E0,0E0,0E0,0E0,0E0,0E0,0E0,0E0,0E0,0E0,0E0,0E0,0E0,0E0,0E0,0E0,0E0,0E0,0E0,0E0,0E0,0E0,0E0,0E0,0E0,0E0,0E0,0E0,0E0,0E0,0E0,0E0,0E0,0E0,0E0,0E0,0E0,0E0,0E0,0E0,0E0,0E0,0E0,0E0,0E0,0E0,0E0,0E0,0E0,0E0,0E0,0E0,0E0,0E0],"parents":[2147483647,0,0,1,1,2,2,3,3,4,4,5,5,6,6,7,7,8,8,9,9,10,10,11,11,12,12,13,13,14,14,15,15,16,16,17,17,18,18,19,19,20,20,21,21,22,22,23,23,24,24,25,25,26,26,27,27,28,28,29,29,30,30,31,31,32,32,33,33,34,34,35,35,36,36,37,37,38,38,39,39,40,40,41,41,42,42,43,43,44,44,45,45,46,46,47,47,48,48,49,49,50,50,51,51,52,52,53,53,54,54,55,55,56,56,57,57,58,58,59,59,60,60,61,61,62,62],"right_children":[2,4,6,8,10,12,14,16,18,20,22,24,26,28,30,32,34,36,38,40,42,44,46,48,50,52,54,56,58,60,62,64,66,68,70,72,74,76,78,80,82,84,86,88,90,92,94,96,98,100,102,104,106,108,110,112,114,116,118,120,122,124,126,-1,-1,-1,-1,-1,-1,-1,-1,-1,-1,-1,-1,-1,-1,-1,-1,-1,-1,-1,-1,-1,-1,-1,-1,-1,-1,-1,-1,-1,-1,-1,-1,-1,-1,-1,-1,-1,-1,-1,-1,-1,-1,-1,-1,-1,-1,-1,-1,-1,-1,-1,-1,-1,-1,-1,-1,-1,-1,-1,-1,-1,-1,-1,-1],"split_conditions":[4.2097998E2,3.6496808E2,4.5227066E1,3.921457E1,8.5468834E1,1.1562871E2,1.08619675E2,9.4251236E1,1.7989288E2,3.8617224E2,1.4423276E2,1.8781009E2,5.2152686E2,4.3505298E2,1.7984494E2,3.5132697E2,1.6641881E2,9.693147E1,3.0710355E2,3.8202423E2,4.173999E2,1.15816216E2,2.0325777E2,1.7148523E2,4.4004236E2,1.7252744E2,1.5739279E2,5.684598E1,1.6058939E2,4.6004358E2,4.3242145E2,3.281078E2,1.6626016E2,1.4995999E2,1.0461879E2,3.2334174E2,3.6275623E2,1.9587326E2,4.2776653E1,3.819334E2,3.9918148E1,8.539253E1,4.3052696E1,4.3612534E1,4.304396E1,4.3068428E1,9.029724E1,3.888522E1,4.325871E2,8.977469E1,5.221261E2,4.5075183E2,4.518225E2,3.650744E1,4.4200012E1,1.4108989E2,1.7571434E2,4.9488644E2,1.7630797E2,4.5642328E2,1.2271094E2,1.3220941E2,2.0548074E2,8.605546E-2,-3.5651374E-1,3.918222E-1,-2.0048366E-1,-4.3081563E-2,-3.148408E-1,-1.7969517E-1,3.607856E-2,8.579032E-2,-1.324835E-1,2.737499E-2,2.804752E-1,1.3577637E-1,-4.2132312E-1,-2.2556702E-2,-2.1354543E-1,-3.3021718E-1,-1.0112835E-1,4.132859E-1,-3.0918002E-1,-3.2822335E-1,-1.5716448E-1,-3.2275522E-1,2.6469007E-1,-2.4765785E-1,-3.5485876E-1,-3.2548508E-1,3.5362688E-1,-1.0300012E-1,-5.2196044E-2,-4.0465125E-1,8.397522E-2,-2.9271877E-1,-2.1589951E-1,-9.75073E-2,-2.0147535E-1,-4.0898006E-2,-2.408215E-1,-4.8647743E-2,-2.2977056E-1,-2.2098902E-1,-3.913576E-2,1.0575031E-1,-4.2957596E-2,1.5863548E-1,-1.8247911E-1,-3.2450753E-1,-5.3713787E-2,2.6460055E-1,-2.621661E-1,-3.546455E-1,6.22965E-1,-2.3334774E-1,-3.0434329E-2,-1.5864706E-3,-1.18506506E-1,-4.6963163E-2,5.340448E-1,-2.2315688E-1,1.7637808E-2,-3.5544E-1,2.9233512E-1,1.3378286E-1,-3.9950505E-1],"split_indices":[1,1,3,3,2,2,2,2,0,1,0,0,1,1,0,1,0,2,1,1,1,2,0,0,1,0,0,3,0,1,1,1,0,0,2,1,1,0,3,1,3,2,3,3,3,3,2,3,1,2,1,1,1,3,3,0,0,1,0,1,2,2,0,0,0,0,0,0,0,0,0,0,0,0,0,0,0,0,0,0,0,0,0,0,0,0,0,0,0,0,0,0,0,0,0,0,0,0,0,0,0,0,0,0,0,0,0,0,0,0,0,0,0,0,0,0,0,0,0,0,0,0,0,0,0,0,0],"split_type":[0,0,0,0,0,0,0,0,0,0,0,0,0,0,0,0,0,0,0,0,0,0,0,0,0,0,0,0,0,0,0,0,0,0,0,0,0,0,0,0,0,0,0,0,0,0,0,0,0,0,0,0,0,0,0,0,0,0,0,0,0,0,0,0,0,0,0,0,0,0,0,0,0,0,0,0,0,0,0,0,0,0,0,0,0,0,0,0,0,0,0,0,0,0,0,0,0,0,0,0,0,0,0,0,0,0,0,0,0,0,0,0,0,0,0,0,0,0,0,0,0,0,0,0,0,0,0],"sum_hessian":[8.255925E4,3.332822E4,4.9231035E4,1.0199922E4,2.3128295E4,3.5876004E4,1.335503E4,2.967536E3,7.2323857E3,1.0494314E3,2.2078863E4,3.0051383E4,5.824622E3,9.474455E3,3.8805747E3,9.319508E2,2.0355852E3,5.5435806E3,1.688805E3,2.683285E2,7.811029E2,7.388755E2,2.1339988E4,2.2990613E4,7.06077E3,5.442753E3,3.818689E2,1.2602897E3,8.214166E3,2.5526426E3,1.3279321E3,5.307566E2,4.0119424E2,6.6992065E2,1.3656646E3,1.6775848E3,3.8659958E3,2.8694412E2,1.401861E3,1.8155997E2,8.676854E1,6.623407E2,1.1876219E2,6.391214E2,9.975408E1,2.0367531E4,9.7245685E2,1.3095812E4,9.894802E3,1.3479752E3,5.712795E3,2.7290828E3,2.7136704E3,8.305842E1,2.9881046E2,1.186661E3,7.362859E1,1.7747168E3,6.4394487E3,1.1762972E3,1.3763455E3,1.2283381E2,1.2050984E3,2.9837936E2,2.3237723E2,2.410866E2,1.6010765E2,2.0154248E2,4.6837814E2,6.4836884E2,7.172957E2,5.157563E2,1.1618286E3,3.5580718E3,3.0792422E2,2.5423523E2,3.270891E1,7.045377E2,6.973232E2,1.7985094E2,1.7090352E0,6.3369915E1,2.3398626E1,6.5222974E2,1.0110991E1,7.857054E1,4.0191647E1,4.4133453E2,1.9778687E2,5.849246E1,4.126162E1,1.287487E4,7.4926616E3,5.736725E1,9.150896E2,5.9641064E3,7.1317056E3,1.3094746E3,8.585327E3,2.5838812E2,1.0895872E3,5.0870083E3,6.257862E2,8.534242E2,1.8756587E3,1.0676638E3,1.6460065E3,2.7004768E1,5.605365E1,2.7346475E2,2.534572E1,3.5113358E1,1.1515477E3,2.5075157E1,4.8553432E1,1.1783129E3,5.9640405E2,3.2861577E3,3.153291E3,1.0211634E3,1.551338E2,1.0289304E3,3.4741504E2,1.0712853E2,1.5705277E1,1.1580767E3,4.7021748E1],"tree_param":{"num_deleted":"0","num_feature":"4","num_nodes":"127","size_leaf_vector":"0"}},{"base_weights":[-3.072652E-1,-1.400759E-1,-3.7240767E-1,-1.1490816E0,-1.3474911E-1,-4.564E-1,-1.8707977E-1,-1.1776717E0,-1.2963583E-1,-5.914287E-1,-2.882208E-1,-7.7361727E-1,-1.6670246E-1,-1.5619256E-1,5.3994678E-2,-7.231795E-1,-2.3096836E-1,-3.416832E-1,-3.9465785E-2,-9.226315E-1,1.1771619E-2,-2.4433102E-1,-3.6409594E-2,-1.7773356E-1,7.864783E-2,-7.170427E-1,1.6835277E-1,-9.64856E-1,-6.290462E-1,-3.787167E-1,2.680797E-2,-2.3318247E-1,-4.2817575E-1,-2.5322527E-1,1.3932008E-1,-5.8714205E-1,-1.057022E0,7.264243E-1,-8.2263255E-1,-3.1264418E-1,-7.395602E-3,-8.08053E-2,5.567763E-1,-8.272945E-2,-2.3820682E-1,4.4375372E-1,-1.1794906E-1,3.3428848E-1,-1.0959653E0,3.0081904E-1,-4.279095E-1,-9.832172E-1,-1.4909457E-1,-7.270874E-1,-4.547009E-1,2.9724494E-1,-5.4357654E-1,-4.5011115E-1,1.1417745E-1,-6.6062495E-2,-5.062612E-1,2.1238222E0,-4.3479893E-1,2.3039271E-1,-1.0069622E0,2.2817254E-1,-6.9479984E-1,3.4297797E-1,-8.9868885E-1,-1.0831072E0,-2.3258598E-1,-1.1873327E0,1.3913575E0,-1.0638407E0,-2.7112035E-2,-4.9085185E-1,-2.1189754E-1,4.4598922E-1,-1.2846792E-1,-1.5200887E-2,-8.4859455E-1,7.9670036E-1,-1.2572746E0],"categories":[],"categories_nodes":[],"categories_segments":[],"categories_sizes":[],"default_left":[1,1,1,0,1,1,1,0,1,1,1,1,1,1,1,1,1,1,1,1,1,1,1,1,1,1,1,1,1,1,1,1,1,1,1,1,1,1,1,1,1,1,1,0,0,0,0,0,0,0,0,0,0,0,0,0,0,0,0,0,0,0,0,0,0,0,0,0,0,0,0,0,0,0,0,0,0,0,0,0,0,0,0],"id":8,"left_children":[1,3,5,-1,7,9,11,-1,13,15,17,19,21,23,25,27,29,31,33,35,37,39,41,43,45,47,49,51,53,55,57,59,61,63,65,67,69,71,73,75,77,79,81,-1,-1,-1,-1,-1,-1,-1,-1,-1,-1,-1,-1,-1,-1,-1,-1,-1,-1,-1,-1,-1,-1,-1,-1,-1,-1,-1,-1,-1,-1,-1,-1,-1,-1,-1,-1,-1,-1,-1,-1],"loss_changes":[8.226299E2,1.13688416E2,8.460405E2,0E0,1.1221402E2,8.492363E2,2.0250446E2,0E0,1.0226782E2,9.850708E2,2.2153809E2,6.659799E1,1.6572534E2,9.268982E1,2.3379779E2,3.4501416E2,2.115599E2,1.2858093E2,1.1270537E2,2.0941284E1,5.5292053E1,1.66193E2,1.6118658E2,9.639166E1,1.1058702E2,1.3680408E2,1.8247919E2,6.361255E1,1.8660742E2,3.9363705E2,8.441538E1,2.7764032E2,1.2986511E2,4.898196E2,1.1918899E2,4.059552E1,7.0644226E0,6.519814E1,8.180897E0,1.4298828E2,1.2625179E2,2.867828E2,1.8649727E2,0E0,0E0,0E0,0E0,0E0,0E0,0E0,0E0,0E0,0E0,0E0,0E0,0E0,0E0,0E0,0E0,0E0,0E0,0E0,0E0,0E0,0E0,0E0,0E0,0E0,0E0,0E0,0E0,0E0,0E0,0E0,0E0,0E0,0E0,0E0,0E0,0E0,0E0,0E0,0E0],"parents":[2147483647,0,0,1,1,2,2,4,4,5,5,6,6,8,8,9,9,10,10,11,11,12,12,13,13,14,14,15,15,16,16,17,17,18,18,19,19,20,20,21,21,22,22,23,23,24,24,25,25,26,26,27,27,28,28,29,29,30,30,31,31,32,32,33,33,34,34,35,35,36,36,37,37,38,38,39,39,40,40,41,41,42,42],"right_children":[2,4,6,-1,8,10,12,-1,14,16,18,20,22,24,26,28,30,32,34,36,38,40,42,44,46,48,50,52,54,56,58,60,62,64,66,68,70,72,74,76,78,80,82,-1,-1,-1,-1,-1,-1,-1,-1,-1,-1,-1,-1,-1,-1,-1,-1,-1,-1,-1,-1,-1,-1,-1,-1,-1,-1,-1,-1,-1,-1,-1,-1,-1,-1,-1,-1,-1,-1,-1,-1],"split_conditions":[3.9745438E2,2.815931E1,4.470649E1,-3.4472448E-1,7.652855E1,1.7708636E2,8.460523E1,-3.5330153E-1,4.7507874E1,1.1083879E2,2.0096933E2,5.207655E2,4.9231018E1,1.18135925E2,1.5515694E2,3.667594E1,1.24309204E2,9.906186E1,4.5343774E2,4.5942726E1,5.326276E2,1.13966576E2,5.356964E2,3.5790002E2,1.6201807E2,3.2543762E2,1.833421E2,1.7660703E2,1.0156134E2,4.1812567E2,1.5414543E2,4.673318E2,2.5193775E1,4.261989E2,5.225399E2,4.2213635E2,5.7317886E1,8.081436E1,8.386868E1,1.6822612E2,4.2098813E2,5.08925E2,5.402826E1,-2.4818836E-2,-7.146205E-2,1.3312612E-1,-3.538472E-2,1.0028655E-1,-3.287896E-1,9.0245716E-2,-1.2837285E-1,-2.9496518E-1,-4.4728372E-2,-2.1812622E-1,-1.3641027E-1,8.917348E-2,-1.6307297E-1,-1.3503335E-1,3.4253236E-2,-1.981875E-2,-1.5187837E-1,6.371467E-1,-1.3043968E-1,6.9117814E-2,-3.0208868E-1,6.845176E-2,-2.0843996E-1,1.028934E-1,-2.6960668E-1,-3.249322E-1,-6.97758E-2,-3.5619983E-1,4.1740727E-1,-3.1915224E-1,-8.133611E-3,-1.4725555E-1,-6.356926E-2,1.3379677E-1,-3.854038E-2,-4.560266E-3,-2.5457838E-1,2.3901011E-1,-3.771824E-1],"split_indices":[1,3,3,0,2,0,2,0,3,2,0,1,3,2,0,3,2,2,1,3,1,2,1,1,0,1,0,0,2,1,0,1,3,1,1,1,3,2,2,0,1,1,3,0,0,0,0,0,0,0,0,0,0,0,0,0,0,0,0,0,0,0,0,0,0,0,0,0,0,0,0,0,0,0,0,0,0,0,0,0,0,0,0],"split_type":[0,0,0,0,0,0,0,0,0,0,0,0,0,0,0,0,0,0,0,0,0,0,0,0,0,0,0,0,0,0,0,0,0,0,0,0,0,0,0,0,0,0,0,0,0,0,0,0,0,0,0,0,0,0,0,0,0,0,0,0,0,0,0,0,0,0,0,0,0,0,0,0,0,0,0,0,0,0,0,0,0,0,0],"sum_hessian":[7.5535914E4,2.1180064E4,5.435585E4,1.1010005E2,2.1069965E4,3.7403E4,1.6952852E4,1.0168012E2,2.0968283E4,2.0744791E4,1.665821E4,5.679549E2,1.6384896E4,1.8319113E4,2.6491702E3,1.5191266E4,5.5535244E3,1.3711058E4,2.9471533E3,4.7723322E2,9.072167E1,1.0266962E4,6.1179355E3,1.6780176E4,1.5389375E3,3.4148734E2,2.3076826E3,4.2557827E3,1.0935483E4,3.529862E3,2.0236622E3,6.08341E3,7.627648E3,1.3420994E3,1.6050538E3,1.380291E2,3.392041E2,4.893721E1,4.1784462E1,7.9690166E3,2.297945E3,5.692739E3,4.251969E2,6.527608E3,1.0252568E4,5.381906E2,1.0007468E3,9.050274E1,2.509846E2,1.8886039E3,4.190788E2,4.1619014E3,9.388142E1,6.9974014E3,3.938082E3,6.9194257E2,2.8379194E3,3.1268323E2,1.710979E3,3.774634E3,2.308776E3,1.8917183E1,7.6087305E3,8.179652E2,5.241342E2,1.4511954E3,1.5385838E2,3.460759E1,1.0342151E2,3.2849664E2,1.0707463E1,1.2416218E1,3.6520992E1,3.1803957E1,9.980505E0,2.8766777E3,5.092339E3,4.837482E2,1.8141968E3,5.2455483E3,4.4719058E2,3.7602512E2,4.917179E1],"tree_param":{"num_deleted":"0","num_feature":"4","num_nodes":"83","size_leaf_vector":"0"}},{"base_weights":[-2.3925903E-1,-3.246406E-1,-1.4115442E-1,-4.378168E-1,-1.7526318E-1,-6.729837E-1,-1.231957E-1,-2.1912247E-1,-5.790989E-1,-1.4587206E-1,-7.703772E-1,7.1429193E-4,-7.496035E-1,4.6967793E-2,-1.6417897E-1,-3.77962E-1,-9.1331646E-2,-6.614695E-1,2.3602817E-2,-1.6061892E-1,1.1265621E0,-9.278998E-1,4.6222135E-1,-6.4397067E-1,1.6285452E0,-1.063524E0,-5.27592E-1,1.4534059E-1,-2.9265854E-1,-6.0847E-1,-1.4254454E-1,-4.041591E-2,-5.25489E-1,-3.0858713E-1,1.801229E-1,-9.1451347E-1,-5.869458E-1,-1.1082555E0,1.24968596E-1,1.087779E-1,-1.8961479E-1,2.4203215E0,-5.1458204E-1,-1.0317892E0,-5.057991E-1,-1.0913903E0,2.5837088E0,-1.0941262E0,1.0901688E0,3.0198436E0,-8.6594135E-1,-5.948572E-1,-1.078113E0,-7.4597526E-1,2.0364365E-2,-1.9707018E-1,2.2931868E-1,2.3913074E-1,-4.8286974E-1,5.448248E-1,-7.298948E-1,-2.761806E-1,-8.218474E-2,-1.1364977E0,1.6203833E-1,8.289687E-3,-7.13003E-1,1.1149641E-1,-4.7075155E-1,9.023664E-2,1.5008944E0,-9.9110216E-1,-4.7101358E-1,-3.4724268E-1,-7.0805985E-1,6.9334966E-1,-1.15436E0,3.852459E-1,-1.457904E-1,2.6329276E-1,-9.5040965E-1,-7.9648596E-1,-1.7398013E-1,-1.1111743E0,3.040974E0,-1.0587685E0,2.3889487E0,-1.0450966E0,-7.1025074E-1,-2.1091391E-1,-1.1271093E0,4.4024715E0,-7.0566434E-1,-2.2459486E-1,-1.2203972E0,1.4979006E0,-2.4023452E-1,2.7612558E-1,3.1644292E0,-1.0996971E0,5.958583E-1,-9.9240196E-1,1.7465767E0,-3.9324164E-1,-1.0258559E0,1.7603725E0,-2.441086E-1,4.1830838E-1,-3.5825267E-1,4.4413644E-1,-8.409252E-2,4.5931178E-1,-1.4176687E0,-5.9612405E-1,5.0199527E-1,-9.572432E-1,1.7351277E0,-8.1267804E-1,3.7220654E-1,-4.568766E-1,-1.5786661E-1,3.6356843E-1,-1.0615678E-1],"categories":[],"categories_nodes":[],"categories_segments":[],"categories_sizes":[],"default_left":[1,1,1,1,1,1,1,1,1,1,1,1,1,1,1,1,1,1,1,1,1,1,1,1,1,1,1,1,1,1,1,1,1,1,1,1,1,1,1,1,1,1,1,1,1,0,1,1,1,1,1,1,0,1,1,1,1,1,1,1,1,1,1,0,0,0,0,0,0,0,0,0,0,0,0,0,0,0,0,0,0,0,0,0,0,0,0,0,0,0,0,0,0,0,0,0,0,0,0,0,0,0,0,0,0,0,0,0,0,0,0,0,0,0,0,0,0,0,0,0,0,0,0],"id":9,"left_children":[1,3,5,7,9,11,13,15,17,19,21,23,25,27,29,31,33,35,37,39,41,43,45,47,49,51,53,55,57,59,61,63,65,67,69,71,73,75,77,79,81,83,85,87,89,-1,91,93,95,97,99,101,-1,103,105,107,109,111,113,115,117,119,121,-1,-1,-1,-1,-1,-1,-1,-1,-1,-1,-1,-1,-1,-1,-1,-1,-1,-1,-1,-1,-1,-1,-1,-1,-1,-1,-1,-1,-1,-1,-1,-1,-1,-1,-1,-1,-1,-1,-1,-1,-1,-1,-1,-1,-1,-1,-1,-1,-1,-1,-1,-1,-1,-1,-1,-1,-1,-1,-1,-1],"loss_changes":[5.8804956E2,6.345405E2,3.1196863E2,6.59729E2,2.8294193E2,5.5077972E1,2.204248E2,1.701341E2,6.441001E2,2.895734E2,1.4825961E2,1.16442894E2,6.620911E1,2.0502931E2,2.4474701E2,1.8608722E2,2.741175E2,2.147041E2,1.792221E2,1.1911786E2,3.76667E2,2.9097168E1,2.8938303E2,6.3238174E1,1.1185874E2,2.0655823E0,6.740532E1,1.3686597E2,1.3953755E2,1.6598337E2,1.9590863E2,2.5265399E2,2.603026E2,1.7591774E2,2.451965E2,8.767627E1,2.5581055E2,1.1465561E1,1.0107772E2,2.4282759E2,1.3047061E2,2.2047339E2,1.2698755E2,1.572876E0,2.4563774E1,0E0,2.247706E2,6.708969E0,9.516865E0,7.230713E0,4.7719364E0,1.4934723E1,0E0,3.9352737E1,7.4729576E1,9.315526E1,2.573241E2,1.3336111E2,1.135735E2,2.0406401E2,9.794476E1,1.6149316E2,1.7885199E2,0E0,0E0,0E0,0E0,0E0,0E0,0E0,0E0,0E0,0E0,0E0,0E0,0E0,0E0,0E0,0E0,0E0,0E0,0E0,0E0,0E0,0E0,0E0,0E0,0E0,0E0,0E0,0E0,0E0,0E0,0E0,0E0,0E0,0E0,0E0,0E0,0E0,0E0,0E0,0E0,0E0,0E0,0E0,0E0,0E0,0E0,0E0,0E0,0E0,0E0,0E0,0E0,0E0,0E0,0E0,0E0,0E0,0E0,0E0,0E0],"parents":[2147483647,0,0,1,1,2,2,3,3,4,4,5,5,6,6,7,7,8,8,9,9,10,10,11,11,12,12,13,13,14,14,15,15,16,16,17,17,18,18,19,19,20,20,21,21,22,22,23,23,24,24,25,25,26,26,27,27,28,28,29,29,30,30,31,31,32,32,33,33,34,34,35,35,36,36,37,37,38,38,39,39,40,40,41,41,42,42,43,43,44,44,46,46,47,47,48,48,49,49,50,50,51,51,53,53,54,54,55,55,56,56,57,57,58,58,59,59,60,60,61,61,62,62],"right_children":[2,4,6,8,10,12,14,16,18,20,22,24,26,28,30,32,34,36,38,40,42,44,46,48,50,52,54,56,58,60,62,64,66,68,70,72,74,76,78,80,82,84,86,88,90,-1,92,94,96,98,100,102,-1,104,106,108,110,112,114,116,118,120,122,-1,-1,-1,-1,-1,-1,-1,-1,-1,-1,-1,-1,-1,-1,-1,-1,-1,-1,-1,-1,-1,-1,-1,-1,-1,-1,-1,-1,-1,-1,-1,-1,-1,-1,-1,-1,-1,-1,-1,-1,-1,-1,-1,-1,-1,-1,-1,-1,-1,-1,-1,-1,-1,-1,-1,-1,-1,-1,-1,-1],"split_conditions":[4.207485E1,1.7735709E2,8.46237E1,4.069021E2,5.2212854E2,3.4365112E2,3.7954224E2,9.998901E1,1.24309204E2,5.196625E2,5.7426715E2,3.3845276E2,8.090929E1,1.7917761E2,3.8936224E2,8.9584724E1,1.6639929E2,3.522313E1,4.2768567E2,3.5564697E2,9.6634964E1,1.9785844E2,3.9241814E1,1.9362897E2,1.5496637E2,4.224409E1,4.8806818E2,9.52859E1,3.2736316E2,1.5087024E2,1.6615176E2,1.5391742E2,1.5495285E2,1.4954291E2,4.036706E2,1.7401997E2,4.398117E2,4.0738354E2,4.664934E2,1.1069509E2,3.6574866E2,9.091762E1,1.3094968E2,4.1693375E1,2.060444E2,-3.2741708E-1,1.881211E2,4.2513317E1,2.9184204E2,1.4925589E2,3.4316702E2,2.0163351E2,-3.234339E-1,1.6951352E2,4.937592E2,1.5226195E2,1.05271385E2,4.8423897E1,1.23162155E2,1.0312982E2,1.2555919E2,4.554722E1,3.9542847E2,-3.4094933E-1,4.86115E-2,2.4869062E-3,-2.1390091E-1,3.3448923E-2,-1.4122547E-1,2.7070994E-2,4.5026836E-1,-2.9733065E-1,-1.4130408E-1,-1.0417281E-1,-2.1241796E-1,2.080049E-1,-3.4630802E-1,1.1557377E-1,-4.373712E-2,7.898783E-2,-2.851229E-1,-2.389458E-1,-5.219404E-2,-3.3335233E-1,9.122922E-1,-3.1763056E-1,7.1668464E-1,-3.13529E-1,-2.1307524E-1,-6.3274175E-2,-3.381328E-1,1.3207415E0,-2.116993E-1,-6.737846E-2,-3.6611918E-1,4.493702E-1,-7.207036E-2,8.283768E-2,9.493288E-1,-3.2990915E-1,1.7875749E-1,-2.977206E-1,5.2397305E-1,-1.179725E-1,-3.0775678E-1,5.2811176E-1,-7.323258E-2,1.2549251E-1,-1.0747581E-1,1.3324094E-1,-2.5227757E-2,1.3779354E-1,-4.2530063E-1,-1.7883722E-1,1.5059859E-1,-2.8717297E-1,5.2053833E-1,-2.4380343E-1,1.1166196E-1,-1.3706298E-1,-4.7359984E-2,1.0907053E-1,-3.1847037E-2],"split_indices":[3,0,2,1,1,1,1,2,2,1,1,1,2,0,1,2,0,3,1,1,2,0,3,0,0,3,1,2,1,0,0,0,0,0,1,0,1,1,1,2,1,2,2,3,0,0,0,3,1,0,1,0,0,0,1,0,2,3,2,2,2,3,1,0,0,0,0,0,0,0,0,0,0,0,0,0,0,0,0,0,0,0,0,0,0,0,0,0,0,0,0,0,0,0,0,0,0,0,0,0,0,0,0,0,0,0,0,0,0,0,0,0,0,0,0,0,0,0,0,0,0,0,0],"split_type":[0,0,0,0,0,0,0,0,0,0,0,0,0,0,0,0,0,0,0,0,0,0,0,0,0,0,0,0,0,0,0,0,0,0,0,0,0,0,0,0,0,0,0,0,0,0,0,0,0,0,0,0,0,0,0,0,0,0,0,0,0,0,0,0,0,0,0,0,0,0,0,0,0,0,0,0,0,0,0,0,0,0,0,0,0,0,0,0,0,0,0,0,0,0,0,0,0,0,0,0,0,0,0,0,0,0,0,0,0,0,0,0,0,0,0,0,0,0,0,0,0,0,0],"sum_hessian":[7.0208234E4,3.7537023E4,3.2671207E4,2.1355238E4,1.6181786E4,1.0660076E3,3.16052E4,8.382419E3,1.2972819E4,1.5421408E4,7.6037805E2,1.08958046E2,9.5704956E2,6.134494E3,2.5470705E4,3.736332E3,4.6460874E3,1.1412929E4,1.5598905E3,1.5245594E4,1.7581491E2,6.7443445E2,8.594358E1,7.848092E1,3.0477125E1,3.948906E2,5.62159E2,4.757156E3,1.3773384E3,1.1814286E3,2.4289277E4,1.1367312E3,2.5996008E3,2.5805986E3,2.0654888E3,2.5939504E3,8.818979E3,1.2739991E2,1.4324906E3,1.4812012E3,1.3764393E4,9.804698E1,7.776793E1,5.4006635E2,1.3436813E2,4.9892075E1,3.6051502E1,6.26E1,1.5880918E1,1.9429646E1,1.1047481E1,1.3182493E1,3.817081E2,4.0170255E2,1.6045644E2,9.366655E2,3.82049E3,3.6279242E2,1.014546E3,1.1220615E2,1.0692224E3,7.556243E3,1.6733033E4,1.7650801E2,9.6022327E2,6.760651E2,1.9235356E3,7.1882086E2,1.8617777E3,1.9348773E3,1.3061143E2,2.21091E3,3.8304044E2,2.96153E3,5.8574487E3,2.8286262E0,1.2457128E2,7.301671E2,7.023235E2,1.2932872E3,1.8791402E2,3.4444785E2,1.3419944E4,1.4537676E1,8.350931E1,6.602814E1,1.1739795E1,5.1644214E2,2.3624174E1,9.202897E1,4.233917E1,2.2997381E1,1.3054123E1,8.290232E0,5.430977E1,1.2059206E1,3.821712E0,1.1182892E0,1.8311356E1,9.737993E0,1.3094879E0,1.1761672E1,1.4208214E0,1.7878493E2,2.2291762E2,2.0424482E1,1.4003195E2,1.9408255E2,7.4258295E2,2.266543E3,1.5539471E3,3.2087268E2,4.1919735E1,9.10265E2,1.04281E2,4.969314E1,6.251301E1,9.9476434E2,7.445807E1,2.9887654E3,4.5674775E3,8.5323376E2,1.58798E4],"tree_param":{"num_deleted":"0","num_feature":"4","num_nodes":"123","size_leaf_vector":"0"}},{"base_weights":[-1.8465215E-1,-6.3618135E-1,-1.7021713E-1,1.7106424E-1,-6.944367E-1,-3.7652332E-1,-1.4098985E-1,-7.328514E-2,1.8900712E0,-8.001545E-1,-3.197778E-1,-6.4216995E-1,-2.0344739E-1,-1.803293E-1,-3.1088179E-3,2.1023388E0,-2.56144E-1,-1.0146226E0,2.5234828E0,-6.2005395E-1,-1.0416143E0,1.6704308E0,-4.5976615E-1,-2.308083E-1,-8.3743703E-1,-2.0630376E-2,-4.4496766E-1,-2.3064017E-1,-2.9171474E-2,-1.0402616E-2,1.826603E0,-1.076303E0,3.1126687E-1,-8.5723543E-1,-3.8101327E-1,-1.077274E0,-8.49482E-1,-9.566399E-1,3.6780477E0,4.8000664E-1,-7.0630634E-1,-6.682217E-1,2.2418632E-1,-9.671223E-1,1.2190762E-1,-6.483316E-2,2.146267E0,-1.0051968E0,-1.9620425E-1,-2.8892097E-1,2.6415551E-2,-1.1052135E0,-1.735018E-2,1.8035567E-1,-8.649034E-2,-2.0800608E-1,2.424264E0,-1.2967745E0,1.3205674E-1,-5.1092756E-1,8.4483874E-1,-4.6694973E-1,-1.0722935E0,-7.2213817E-1,4.2090443E-1,-1.0696832E0,6.657726E-2,6.763492E0,-6.219969E-1,-5.029064E-1,3.4725091E0,-1.0094702E0,-4.2432633E-1,-1.1280942E0,-4.149011E-1,1.9131114E0,-1.5945919E-2,-9.98862E-1,-5.95118E-1,6.2049425E-1,-1.1593925E0,1.6181856E-1,-4.2967373E-1,-1.0863149E0,3.8366838E0,-1.0544436E0,3.3077018E0,-7.0725286E-1,-6.115044E-2,-1.1624651E-1,-4.308775E-1,5.802424E-2,-8.774062E-1,-3.6029715E-2,-1.1737838E0,-7.04724E-2,2.2137503E-1,7.071864E-1,-1.0808322E-1,-1.8084201E-1,7.920933E-2,9.8692083E-1,-1.0098286E0,-9.559544E-1,2.7027624E0],"categories":[],"categories_nodes":[],"categories_segments":[],"categories_sizes":[],"default_left":[1,1,1,1,1,1,1,1,1,1,1,1,1,1,1,0,1,0,0,1,1,1,1,1,1,1,1,1,1,1,1,1,1,1,1,0,1,0,1,1,1,1,1,1,1,1,1,1,1,1,1,1,1,1,1,1,1,0,0,0,0,0,0,0,0,0,0,0,0,0,0,0,0,0,0,0,0,0,0,0,0,0,0,0,0,0,0,0,0,0,0,0,0,0,0,0,0,0,0,0,0,0,0,0,0],"id":10,"left_children":[1,3,5,7,9,11,13,15,17,19,21,23,25,27,29,-1,31,-1,-1,33,35,37,39,41,43,45,47,49,51,53,55,57,59,61,63,-1,65,-1,67,69,71,73,75,77,79,81,83,85,87,89,91,93,95,97,99,101,103,-1,-1,-1,-1,-1,-1,-1,-1,-1,-1,-1,-1,-1,-1,-1,-1,-1,-1,-1,-1,-1,-1,-1,-1,-1,-1,-1,-1,-1,-1,-1,-1,-1,-1,-1,-1,-1,-1,-1,-1,-1,-1,-1,-1,-1,-1,-1,-1],"loss_changes":[4.317827E2,9.663483E1,3.871272E2,5.8500576E1,7.557141E1,3.6618616E2,3.0508228E2,4.9318672E1,3.4444683E1,6.425659E1,1.1861303E2,2.522428E2,2.1306561E2,3.3278137E2,1.666558E2,0E0,5.3386745E1,0E0,0E0,4.8279724E1,3.4432373E0,1.512608E2,9.208163E1,2.0175198E2,2.652041E2,2.6332224E2,2.895434E2,4.9187622E2,1.3899828E2,1.8054144E2,6.0796738E1,1.2650257E1,3.0332623E1,3.5551544E1,1.1759952E2,0E0,2.1113182E1,0E0,2.176112E2,2.455439E2,2.6421387E1,5.97267E1,2.0170026E2,2.1568726E1,1.6337965E2,2.2282004E2,3.0448923E2,1.392196E2,9.9410706E1,6.5599585E2,1.7343222E2,8.663254E0,1.3711806E2,5.390406E2,1.390315E2,1.2665297E1,3.873639E1,0E0,0E0,0E0,0E0,0E0,0E0,0E0,0E0,0E0,0E0,0E0,0E0,0E0,0E0,0E0,0E0,0E0,0E0,0E0,0E0,0E0,0E0,0E0,0E0,0E0,0E0,0E0,0E0,0E0,0E0,0E0,0E0,0E0,0E0,0E0,0E0,0E0,0E0,0E0,0E0,0E0,0E0,0E0,0E0,0E0,0E0,0E0,0E0],"parents":[2147483647,0,0,1,1,2,2,3,3,4,4,5,5,6,6,7,7,8,8,9,9,10,10,11,11,12,12,13,13,14,14,16,16,19,19,20,20,21,21,22,22,23,23,24,24,25,25,26,26,27,27,28,28,29,29,30,30,31,31,32,32,33,33,34,34,36,36,38,38,39,39,40,40,41,41,42,42,43,43,44,44,45,45,46,46,47,47,48,48,49,49,50,50,51,51,52,52,53,53,54,54,55,55,56,56],"right_children":[2,4,6,8,10,12,14,16,18,20,22,24,26,28,30,-1,32,-1,-1,34,36,38,40,42,44,46,48,50,52,54,56,58,60,62,64,-1,66,-1,68,70,72,74,76,78,80,82,84,86,88,90,92,94,96,98,100,102,104,-1,-1,-1,-1,-1,-1,-1,-1,-1,-1,-1,-1,-1,-1,-1,-1,-1,-1,-1,-1,-1,-1,-1,-1,-1,-1,-1,-1,-1,-1,-1,-1,-1,-1,-1,-1,-1,-1,-1,-1,-1,-1,-1,-1,-1,-1,-1,-1],"split_conditions":[8.355048E1,3.2813147E2,3.5472855E1,3.2683545E2,4.8648627E2,1.7203918E2,1.865535E2,2.304529E2,1.8610611E2,4.3447205E2,3.2452305E1,3.9550607E2,4.4658438E2,4.6889515E1,5.9394574E2,6.3070166E-1,8.0496994E1,-3.043868E-1,7.5704485E-1,8.062547E1,8.2739265E1,1.8259296E2,4.937992E2,3.762967E2,1.2821513E2,4.4539792E2,3.2292797E1,1.1566403E2,1.3744897E2,9.501004E1,4.2735886E1,1.9167786E2,3.080449E2,3.833711E2,4.17904E2,-3.231822E-1,4.744931E2,-2.8699198E-1,1.903805E2,1.970423E2,8.082515E1,3.2684967E1,8.865485E1,3.521899E1,4.6944177E2,1.8624411E2,3.320428E1,2.3141864E2,4.6040192E2,4.100586E2,5.2152686E2,3.2511383E2,4.937426E2,4.106371E2,1.9852638E2,5.986389E2,9.846861E1,-3.8903236E-1,3.9617024E-2,-1.5327828E-1,2.5345165E-1,-1.4008492E-1,-3.2168806E-1,-2.1664146E-1,1.2627134E-1,-3.2090497E-1,1.997318E-2,2.0290477E0,-1.8659908E-1,-1.5087192E-1,1.0417528E0,-3.0284107E-1,-1.2729791E-1,-3.3842826E-1,-1.2447034E-1,5.739335E-1,-4.7837757E-3,-2.9965863E-1,-1.785354E-1,1.8614829E-1,-3.4781775E-1,4.8545573E-2,-1.2890212E-1,-3.2589447E-1,1.1510051E0,-3.163331E-1,9.923106E-1,-2.1217586E-1,-1.8345132E-2,-3.4873955E-2,-1.2926325E-1,1.7407272E-2,-2.6322186E-1,-1.0808915E-2,-3.5213515E-1,-2.114172E-2,6.6412516E-2,2.1215592E-1,-3.2424968E-2,-5.4252606E-2,2.37628E-2,2.9607627E-1,-3.029486E-1,-2.8678632E-1,8.1082875E-1],"split_indices":[2,1,3,1,1,0,0,1,0,1,3,1,1,3,1,0,2,0,0,2,2,0,1,1,2,1,3,2,0,2,3,0,1,1,1,0,1,0,0,0,2,3,2,3,1,0,3,0,1,1,1,1,1,1,0,1,2,0,0,0,0,0,0,0,0,0,0,0,0,0,0,0,0,0,0,0,0,0,0,0,0,0,0,0,0,0,0,0,0,0,0,0,0,0,0,0,0,0,0,0,0,0,0,0,0],"split_type":[0,0,0,0,0,0,0,0,0,0,0,0,0,0,0,0,0,0,0,0,0,0,0,0,0,0,0,0,0,0,0,0,0,0,0,0,0,0,0,0,0,0,0,0,0,0,0,0,0,0,0,0,0,0,0,0,0,0,0,0,0,0,0,0,0,0,0,0,0,0,0,0,0,0,0,0,0,0,0,0,0,0,0,0,0,0,0,0,0,0,0,0,0,0,0,0,0,0,0,0,0,0,0,0,0],"sum_hessian":[6.626188E4,2.0513818E3,6.4210496E4,1.3794464E2,1.9134373E3,7.9663857E3,5.6244113E4,1.2161497E2,1.6329674E1,1.4914564E3,4.2198083E2,3.1416677E3,4.824718E3,4.375879E4,1.248532E4,8.615239E0,1.1299973E2,2.8156865E0,1.3513987E1,8.5631464E2,6.3514185E2,2.7012512E1,3.9496832E2,1.0119705E3,2.1296973E3,2.7467048E3,2.078013E3,3.2830926E4,1.0927864E4,1.2436738E4,4.8582375E1,4.584157E1,6.715816E1,4.2853076E2,4.2778387E2,5.3182776E2,1.033141E2,1.1927828E1,1.5084684E1,8.188572E1,3.130826E2,5.1571466E2,4.9625586E2,1.8760787E3,2.536185E2,2.6927454E3,5.395953E1,6.380493E2,1.4399635E3,2.6762982E4,6.0679434E3,1.1774283E2,1.0810122E4,3.5457861E3,8.890952E3,1.117873E1,3.7403645E1,3.8706245E1,7.1353254E0,2.6447294E1,4.0710865E1,1.5336906E2,2.751617E2,3.0018762E2,1.27596245E2,8.315718E1,2.015692E1,8.449185E0,6.6354985E0,6.22659E1,1.9619822E1,1.4963078E2,1.6345183E2,1.819513E2,3.3376337E2,6.0907494E1,4.353484E2,1.7270413E3,1.4903752E2,1.8294547E2,7.0673035E1,1.6612655E3,1.0314797E3,1.8650867E1,3.5308662E1,6.31593E2,6.456327E0,3.0010776E2,1.1398558E3,1.2075856E4,1.4687126E4,5.8638086E3,2.0413483E2,7.188064E0,1.1055476E2,8.843034E3,1.9670873E3,1.2539702E3,2.291816E3,5.665084E3,3.2258682E3,4.3962746E0,6.782456E0,2.6619728E0,3.4741673E1],"tree_param":{"num_deleted":"0","num_feature":"4","num_nodes":"105","size_leaf_vector":"0"}},{"base_weights":[-1.4106679E-1,-5.659149E-1,-1.2894818E-1,1.4828519E-2,-6.4121187E-1,-3.07868E-1,-1.0493963E-1,-1.1227571E0,1.4509593E-1,-1.0270165E0,-5.3509396E-1,-5.4201496E-1,-1.4219421E-1,-9.082707E-2,-3.5957474E-1,2.6479855E-1,-1.0952779E0,-2.7788166E-2,-1.0322188E0,3.5974786E-2,-6.7094356E-1,-1.8397065E-1,-7.518005E-1,-2.3136936E-1,2.9067388E-1,-1.1224175E-1,5.4697316E-2,-8.9891016E-1,-5.1683776E-2,8.284839E-1,-4.216948E-2,-1.0417328E0,-7.651268E-1,-4.6287104E-1,9.125147E-1,-8.2378805E-1,-2.4055456E-1,-5.7016534E-1,1.5223092E-1,-8.9868623E-1,3.1574655E-2,7.3749334E-1,-2.7883565E-1,2.3438225E0,2.1057826E-1,-1.4822128E-1,4.01221E-3,-4.1577214E-1,1.1323461E-1,1.3831498E-2,-9.280402E-1,-3.990545E-1,2.9927224E-1,-1.2316531E0,1.2135513E0,-5.4250354E-1,8.184807E-1,-9.2491084E-1,8.872383E-2,1.1561038E0,-8.3717984E-1,-1.0079442E0,1.7879585E0,4.470797E-1,-8.665224E-1,2.0872773E-1,-1.0773844E0,-3.0988497E-1,-1.0940908E0,-4.850946E-1,4.2949936E-1,4.7618225E-2,-9.316359E-1,3.7996617E-1,-9.4271165E-1,1.463168E0,-6.335893E-1,-1.107332E0,-2.3525144E-1,3.4086823E0,-1.0590807E0,8.4192574E-1,-1.4113885E-1,-4.1633435E-3,-2.000324E-1,1.6175029E-1,-7.446266E-2,-4.4960064E-1,3.7432704E0,1.4318861E-1,-9.698186E-1,8.183441E-1,-1.0468656E0,-1.0004555E0,-6.6539973E-1,-2.1134135E-1,-1.0554372E0,-9.8518497E-1,5.019785E-1],"categories":[],"categories_nodes":[],"categories_segments":[],"categories_sizes":[],"default_left":[1,1,1,1,1,1,1,0,1,1,1,1,1,1,1,1,0,0,1,1,1,1,1,1,1,1,1,1,1,1,1,0,1,1,1,1,1,1,1,1,1,1,1,1,1,1,1,1,1,1,1,1,1,0,0,0,0,0,0,0,0,0,0,0,0,0,0,0,0,0,0,0,0,0,0,0,0,0,0,0,0,0,0,0,0,0,0,0,0,0,0,0,0,0,0,0,0,0,0],"id":11,"left_children":[1,3,5,7,9,11,13,-1,15,17,19,21,23,25,27,29,-1,-1,31,33,35,37,39,41,43,45,47,49,51,53,55,-1,57,59,61,63,65,67,69,71,73,75,77,79,81,83,85,87,89,91,93,95,97,-1,-1,-1,-1,-1,-1,-1,-1,-1,-1,-1,-1,-1,-1,-1,-1,-1,-1,-1,-1,-1,-1,-1,-1,-1,-1,-1,-1,-1,-1,-1,-1,-1,-1,-1,-1,-1,-1,-1,-1,-1,-1,-1,-1,-1,-1],"loss_changes":[3.2596875E2,7.6795166E1,2.6445508E2,3.0174274E1,6.3091003E1,2.8248602E2,1.9505646E2,0E0,2.7401222E1,1.7088013E0,9.476526E1,2.2654663E2,1.6478247E2,1.6030887E2,4.7329477E2,2.8988815E1,0E0,0E0,4.7821045E-2,1.03454315E2,6.470178E1,1.4502708E2,2.1895801E2,1.6294753E2,1.19446655E2,1.8755963E2,1.8178918E2,2.7553833E1,2.2146849E2,4.8334362E1,4.7504147E1,0E0,2.1560993E0,9.2371956E1,1.4605214E2,3.9904358E1,9.796286E1,7.053621E1,1.0580489E2,5.000305E1,1.0265888E2,1.6564037E2,1.2158029E2,1.0248303E2,1.5623814E2,2.5558258E2,1.3120996E2,1.0445294E2,1.9056418E2,2.9035313E1,1.8426025E1,1.1225859E2,2.3579778E2,0E0,0E0,0E0,0E0,0E0,0E0,0E0,0E0,0E0,0E0,0E0,0E0,0E0,0E0,0E0,0E0,0E0,0E0,0E0,0E0,0E0,0E0,0E0,0E0,0E0,0E0,0E0,0E0,0E0,0E0,0E0,0E0,0E0,0E0,0E0,0E0,0E0,0E0,0E0,0E0,0E0,0E0,0E0,0E0,0E0,0E0],"parents":[2147483647,0,0,1,1,2,2,3,3,4,4,5,5,6,6,8,8,9,9,10,10,11,11,12,12,13,13,14,14,15,15,18,18,19,19,20,20,21,21,22,22,23,23,24,24,25,25,26,26,27,27,28,28,29,29,30,30,32,32,33,33,34,34,35,35,36,36,37,37,38,38,39,39,40,40,41,41,42,42,43,43,44,44,45,45,46,46,47,47,48,48,49,49,50,50,51,51,52,52],"right_children":[2,4,6,8,10,12,14,-1,16,18,20,22,24,26,28,30,-1,-1,32,34,36,38,40,42,44,46,48,50,52,54,56,-1,58,60,62,64,66,68,70,72,74,76,78,80,82,84,86,88,90,92,94,96,98,-1,-1,-1,-1,-1,-1,-1,-1,-1,-1,-1,-1,-1,-1,-1,-1,-1,-1,-1,-1,-1,-1,-1,-1,-1,-1,-1,-1,-1,-1,-1,-1,-1,-1,-1,-1,-1,-1,-1,-1,-1,-1,-1,-1,-1,-1],"split_conditions":[8.355048E1,3.4365112E2,3.5472855E1,7.656731E1,1.6215785E2,1.7401938E2,5.2183435E2,-3.3682713E-1,4.552443E1,3.4521735E2,1.6866623E2,3.9626355E2,1.1431615E2,1.1882927E2,5.3570685E2,1.6156842E2,-3.285834E-1,-8.33645E-3,8.33788E1,4.316221E1,4.8647946E2,3.762967E2,1.2647336E2,3.25357E2,2.6631594E1,1.8661105E2,1.5593837E2,8.554195E1,1.7557184E2,1.4914845E2,1.8898795E2,-3.1251985E-1,1.6056685E2,3.6189752E2,8.081899E1,3.0452076E1,5.1329034E2,3.6133472E2,1.5986664E2,8.634678E1,4.6944177E2,9.7251465E1,3.6117053E2,1.1954155E2,1.7898128E2,3.7989502E2,9.513789E1,5.194401E2,1.4277588E2,1.7012686E2,4.8152878E1,5.649351E2,3.9212616E1,-3.6949593E-1,3.640654E-1,-1.6275106E-1,2.4554421E-1,-2.7747327E-1,2.661715E-2,3.4683117E-1,-2.5115398E-1,-3.0238327E-1,5.3638756E-1,1.341239E-1,-2.5995672E-1,6.261832E-2,-3.232153E-1,-9.296549E-2,-3.2822725E-1,-1.4552839E-1,1.2884982E-1,1.42854685E-2,-2.794908E-1,1.1398985E-1,-2.8281352E-1,4.3895042E-1,-1.9007681E-1,-3.321996E-1,-7.057544E-2,1.0226047E0,-3.1772423E-1,2.5257772E-1,-4.2341657E-2,-1.2490031E-3,-6.000972E-2,4.8525088E-2,-2.2338798E-2,-1.348802E-1,1.1229812E0,4.2956583E-2,-2.909456E-1,2.4550325E-1,-3.1405967E-1,-3.0013666E-1,-1.9961993E-1,-6.340241E-2,-3.1663117E-1,-2.955555E-1,1.5059356E-1],"split_indices":[2,1,3,2,0,0,1,0,3,1,0,1,2,2,1,0,0,0,2,3,1,1,2,1,3,0,0,2,0,0,0,0,0,1,2,3,1,1,0,2,1,2,1,2,0,1,2,1,2,0,3,1,3,0,0,0,0,0,0,0,0,0,0,0,0,0,0,0,0,0,0,0,0,0,0,0,0,0,0,0,0,0,0,0,0,0,0,0,0,0,0,0,0,0,0,0,0,0,0],"split_type":[0,0,0,0,0,0,0,0,0,0,0,0,0,0,0,0,0,0,0,0,0,0,0,0,0,0,0,0,0,0,0,0,0,0,0,0,0,0,0,0,0,0,0,0,0,0,0,0,0,0,0,0,0,0,0,0,0,0,0,0,0,0,0,0,0,0,0,0,0,0,0,0,0,0,0,0,0,0,0,0,0,0,0,0,0,0,0,0,0,0,0,0,0,0,0,0,0,0,0],"sum_hessian":[6.3325637E4,1.754974E3,6.1570664E4,2.0151906E2,1.5534548E3,7.283053E3,5.428761E4,1.9922558E1,1.815965E2,3.332405E2,1.2202144E3,3.016939E3,4.2661143E3,5.143813E4,2.8494832E3,1.6633118E2,1.5265319E1,1.7588128E0,3.314817E2,2.3463176E2,9.8558264E2,1.1153057E3,1.9016332E3,3.5377651E3,7.283494E2,4.4839926E4,6.598203E3,1.0348346E3,1.8146487E3,5.8044727E1,1.08286446E2,3.1727966E2,1.4202025E1,1.498327E2,8.479905E1,7.2662244E2,2.589602E2,5.187369E2,5.9656885E2,1.6012463E3,3.003869E2,1.6454768E2,3.3732173E3,2.6285725E1,7.020637E2,3.4242047E4,1.0597875E4,7.294495E2,5.868754E3,3.2021393E1,1.0028132E3,9.119138E2,9.0273486E2,8.7945795E0,4.9250145E1,6.871123E1,3.957522E1,1.1893189E1,2.3088365E0,2.774412E1,1.22088585E2,2.6504608E1,5.8294445E1,2.3330776E1,7.032916E2,1.6898506E2,8.997515E1,3.4762976E2,1.711071E2,1.8062866E2,4.159402E2,5.3863277E1,1.547383E3,2.2171472E2,7.8672165E1,1.0755483E2,5.6992844E1,1.6736443E2,3.205853E3,2.0019415E1,6.2663107E0,2.5068303E2,4.5138068E2,9.057964E3,2.5184084E4,3.5204827E3,7.0773926E3,7.24449E2,5.000568E0,5.7116543E3,1.5709947E2,1.833968E1,1.3681711E1,7.838741E2,2.1893907E2,7.101471E2,2.0176674E2,1.2252019E2,7.802147E2],"tree_param":{"num_deleted":"0","num_feature":"4","num_nodes":"99","size_leaf_vector":"0"}},{"base_weights":[-1.06266245E-1,-1.6327296E-1,-3.5489123E-2,-1.2419433E-1,-3.9354956E-1,-4.631662E-1,-2.463632E-2,-1.9597869E-1,-3.6210626E-2,-7.677774E-1,-2.0115621E-1,-5.7568693E-1,2.6949227E-1,-3.0578792E-2,7.1013355E-1,-3.5659134E-1,-9.225179E-2,-5.3733134E-1,-1.1529501E-2,-8.983884E-1,-1.969658E-1,-2.3105815E-1,1.8245542E0,-3.0695468E-1,-9.729966E-1,6.376695E-1,-1.0495226E0,-7.6337314E-1,-2.4922434E-2,1.4547589E0,-4.7755894E-1,-1.1142048E-1,-5.048499E-1,-1.2050333E-1,7.344514E-1,-9.636191E-1,-2.320227E-1,-6.062109E-2,2.1706587E-1,-9.782978E-1,-3.999911E-1,1.2495328E-1,-1.0880938E0,-3.0066636E-1,6.6025174E-1,2.6257782E0,-1.1988758E0,9.198433E-2,-6.978854E-1,-1.0564815E0,1.4599188E-1,-7.620159E-1,9.8015606E-1,9.0876323E-1,-1.0986563E0,3.3537824E-2,-9.457281E-2,8.871431E-1,2.5654378E0,-9.330788E-1,9.345682E-1,4.1193017E-1,-3.1607425E-1,-1.6364343E-1,-6.2783265E-1,-8.0532804E-2,-8.5616505E-1,3.319298E0,5.1378554E-1,-1.0451779E0,-2.762209E-1,1.2597544E-1,-8.909087E-1,8.722467E-2,-1.8215603E-1,4.485483E-1,-3.6873525E-1,-1.0201968E0,-7.1959853E-1,5.5898744E-1,-9.690672E-1,1.0183029E0,-1.767403E-1,-1.2951475E0,3.8504574E-2,-1.5121919E-2,-4.555509E-1,9.28294E-1,-9.854658E-1,2.7924178E0,-7.787995E-1,-3.690456E-1,1.5697199E0,-9.0451294E-1,-1.3599843E-1,-9.7600317E-1,2.1010664E0,-1.0168713E0,4.3356127E-1,1.457067E0,-2.0898886E-1,-2.0144832E0,1.1736172E0,-1.1676337E0,-2.3354077E-1,6.5262295E-2,-4.743534E-1,-1.1960744E-1,3.2982653E-1,1.6846443E0,-1.1593251E0,3.504008E0,-7.5743794E-1,4.2047343E-1,-1.1131401E0,1.2535751E0,-1.2272888E0],"categories":[],"categories_nodes":[],"categories_segments":[],"categories_sizes":[],"default_left":[1,1,1,1,1,1,1,1,1,1,1,1,1,1,1,1,1,1,1,1,1,1,1,1,1,1,0,1,1,1,1,1,1,1,1,1,1,1,1,1,1,1,1,1,1,1,0,1,1,0,1,1,1,1,1,1,1,1,1,1,1,0,0,0,0,0,0,0,0,0,0,0,0,0,0,0,0,0,0,0,0,0,0,0,0,0,0,0,0,0,0,0,0,0,0,0,0,0,0,0,0,0,0,0,0,0,0,0,0,0,0,0,0,0,0,0,0],"id":12,"left_children":[1,3,5,7,9,11,13,15,17,19,21,23,25,27,29,31,33,35,37,39,41,43,45,47,49,51,-1,53,55,57,59,61,63,65,67,69,71,73,75,77,79,81,83,85,87,89,-1,91,93,-1,95,97,99,101,103,105,107,109,111,113,115,-1,-1,-1,-1,-1,-1,-1,-1,-1,-1,-1,-1,-1,-1,-1,-1,-1,-1,-1,-1,-1,-1,-1,-1,-1,-1,-1,-1,-1,-1,-1,-1,-1,-1,-1,-1,-1,-1,-1,-1,-1,-1,-1,-1,-1,-1,-1,-1,-1,-1,-1,-1,-1,-1,-1,-1],"loss_changes":[2.4660901E2,3.0460217E2,1.2655792E2,1.8279953E2,3.5344592E2,5.5785446E1,1.1614602E2,2.655114E2,1.6085376E2,1.2412103E2,1.9697833E2,6.219203E1,4.4628258E1,1.0933663E2,1.8942778E2,2.2727527E2,2.2631097E2,7.9229324E1,1.3912729E2,5.3632812E1,8.95625E1,1.9865129E2,1.17766846E2,5.4742355E1,2.2171844E1,3.4968567E1,0E0,1.1427717E2,1.0660979E2,8.0574036E1,5.4255196E1,2.5269498E2,1.6342926E2,2.753592E2,1.8093803E2,1.3976364E1,8.432839E1,1.8339587E2,2.9737296E2,1.1929932E1,1.0375499E2,6.2142265E1,1.9371399E1,1.3124112E2,1.0326454E2,2.3572906E1,0E0,1.1939766E2,2.0449211E1,0E0,3.987201E1,4.8884363E0,3.307917E1,2.8916248E1,9.797714E0,2.2939528E2,1.2698013E2,1.4638815E2,1.3962244E2,1.5883171E1,1.5842316E1,0E0,0E0,0E0,0E0,0E0,0E0,0E0,0E0,0E0,0E0,0E0,0E0,0E0,0E0,0E0,0E0,0E0,0E0,0E0,0E0,0E0,0E0,0E0,0E0,0E0,0E0,0E0,0E0,0E0,0E0,0E0,0E0,0E0,0E0,0E0,0E0,0E0,0E0,0E0,0E0,0E0,0E0,0E0,0E0,0E0,0E0,0E0,0E0,0E0,0E0,0E0,0E0,0E0,0E0,0E0,0E0],"parents":[2147483647,0,0,1,1,2,2,3,3,4,4,5,5,6,6,7,7,8,8,9,9,10,10,11,11,12,12,13,13,14,14,15,15,16,16,17,17,18,18,19,19,20,20,21,21,22,22,23,23,24,24,25,25,27,27,28,28,29,29,30,30,31,31,32,32,33,33,34,34,35,35,36,36,37,37,38,38,39,39,40,40,41,41,42,42,43,43,44,44,45,45,47,47,48,48,50,50,51,51,52,52,53,53,54,54,55,55,56,56,57,57,58,58,59,59,60,60],"right_children":[2,4,6,8,10,12,14,16,18,20,22,24,26,28,30,32,34,36,38,40,42,44,46,48,50,52,-1,54,56,58,60,62,64,66,68,70,72,74,76,78,80,82,84,86,88,90,-1,92,94,-1,96,98,100,102,104,106,108,110,112,114,116,-1,-1,-1,-1,-1,-1,-1,-1,-1,-1,-1,-1,-1,-1,-1,-1,-1,-1,-1,-1,-1,-1,-1,-1,-1,-1,-1,-1,-1,-1,-1,-1,-1,-1,-1,-1,-1,-1,-1,-1,-1,-1,-1,-1,-1,-1,-1,-1,-1,-1,-1,-1,-1,-1,-1,-1],"split_conditions":[4.2702988E1,4.8813303E2,8.4828E1,1.7735709E2,1.7145676E2,5.206454E2,2.1487854E2,9.998912E1,8.5080536E1,1.18189445E2,2.2048657E2,4.5942726E1,1.7722832E2,1.3631909E2,1.0123955E2,9.1048294E1,4.8238208E2,1.8839645E2,4.6272705E2,5.429754E2,1.3052945E2,1.2875398E2,5.120531E2,4.260968E2,5.078459E2,1.5898573E2,-3.148568E-1,3.2380444E2,1.7406248E2,4.6705408E2,1.2288164E2,3.6226178E2,1.5536731E2,4.7212714E2,1.4754152E2,4.7195984E2,1.9686182E2,9.947482E1,1.0809344E2,1.6871701E2,5.5177655E2,4.9365137E2,1.6956158E2,9.596112E1,1.3752153E2,1.0973485E2,-3.5966274E-1,4.1693945E2,4.9077124E2,-3.1694445E-1,5.26253E1,8.4197945E1,5.326276E2,2.836125E2,5.2020984E2,5.182959E2,5.357048E2,4.0588763E2,4.9894342E2,4.3077457E1,4.2197644E2,1.23579055E-1,-9.482228E-2,-4.9093034E-2,-1.883498E-1,-2.4159843E-2,-2.5684953E-1,9.9578947E-1,1.5413567E-1,-3.135534E-1,-8.286627E-2,3.7792634E-2,-2.6727262E-1,2.6167402E-2,-5.464681E-2,1.3456449E-1,-1.1062058E-1,-3.0605906E-1,-2.1587957E-1,1.6769624E-1,-2.9072016E-1,3.0549088E-1,-5.3022094E-2,-3.885443E-1,1.1551373E-2,-4.536576E-3,-1.3666528E-1,2.7848822E-1,-2.9563975E-1,8.3772534E-1,-2.3363985E-1,-1.1071368E-1,4.70916E-1,-2.713539E-1,-4.079953E-2,-2.9280096E-1,6.3031995E-1,-3.050614E-1,1.3006839E-1,4.371201E-1,-6.269666E-2,-6.0434496E-1,3.5208517E-1,-3.5029012E-1,-7.0062235E-2,1.957869E-2,-1.4230603E-1,-3.5882235E-2,9.8947965E-2,5.053933E-1,-3.4779754E-1,1.0512024E0,-2.272314E-1,1.2614204E-1,-3.3394206E-1,3.7607256E-1,-3.6818665E-1],"split_indices":[3,1,2,0,0,1,0,2,2,2,0,3,0,0,2,2,1,0,1,1,2,2,1,1,1,0,0,1,0,1,2,1,0,1,0,1,0,2,2,0,1,1,0,2,2,2,0,1,1,0,3,2,1,1,1,1,1,1,1,3,1,0,0,0,0,0,0,0,0,0,0,0,0,0,0,0,0,0,0,0,0,0,0,0,0,0,0,0,0,0,0,0,0,0,0,0,0,0,0,0,0,0,0,0,0,0,0,0,0,0,0,0,0,0,0,0,0],"split_type":[0,0,0,0,0,0,0,0,0,0,0,0,0,0,0,0,0,0,0,0,0,0,0,0,0,0,0,0,0,0,0,0,0,0,0,0,0,0,0,0,0,0,0,0,0,0,0,0,0,0,0,0,0,0,0,0,0,0,0,0,0,0,0,0,0,0,0,0,0,0,0,0,0,0,0,0,0,0,0,0,0,0,0,0,0,0,0,0,0,0,0,0,0,0,0,0,0,0,0,0,0,0,0,0,0,0,0,0,0,0,0,0,0,0,0,0,0],"sum_hessian":[6.1121363E4,3.3853273E4,2.7268088E4,2.8943086E4,4.9101895E3,6.738033E2,2.6594285E4,1.5938179E4,1.3004907E4,1.6662146E3,3.2439749E3,5.8428394E2,8.951931E1,2.6381879E4,2.1240579E2,6.2531885E3,9.68499E3,6.0947504E2,1.2395432E4,1.3554839E3,3.1073074E2,3.1976594E3,4.631538E1,3.4959653E2,2.3468744E2,7.0388336E1,1.9130974E1,2.010529E2,2.6180826E4,1.3041628E2,8.198951E1,2.3570896E3,3.8960986E3,9.36578E3,3.1920947E2,2.5344533E2,3.560297E2,1.0204679E4,2.190753E3,1.1673556E3,1.8812823E2,2.2890047E2,8.1830284E1,2.966638E3,2.3102148E2,3.6716778E1,9.598605E0,1.734045E2,1.7619202E2,2.1844563E2,1.6241812E1,1.3596551E1,5.6791786E1,3.329457E1,1.6775833E2,1.4234107E4,1.1946718E4,8.7498604E1,4.291768E1,6.2248734E1,1.9740776E1,6.623311E2,1.6947584E3,1.0328538E3,2.8632449E3,8.8841875E3,4.815929E2,2.4002747E1,2.9520673E2,2.2609857E2,2.7346756E1,2.3121208E2,1.2481762E2,4.604114E3,5.6005654E3,1.5704253E3,6.2032764E2,1.0021103E3,1.6524536E2,7.006908E1,1.18059166E2,5.718721E1,1.7171326E2,6.899949E1,1.2830798E1,1.043656E3,1.9229819E3,1.9903935E2,3.1982119E1,3.517492E1,1.541857E0,1.3274153E2,4.0662975E1,1.2837413E2,4.7817894E1,1.0637726E1,5.604085E0,1.1330709E1,2.265841E0,4.037424E1,1.6417543E1,2.2171736E0,3.1077396E1,1.5504648E2,1.2711851E1,1.3398093E4,8.360152E2,1.1281934E4,6.647847E2,6.308961E1,2.4408989E1,3.3422688E1,9.49499E0,7.151849E0,5.5096886E1,1.7568485E1,2.172292E0],